digraph Tree {
node [shape=box] ;
0 [label="wr_size <= 10.0\nmse = 532604.2934\nsamples = 81\nvalue = [[11.2737]\n[1019.0617]\n[90.9837]]"] ;
1 [label="wr_stride <= 0.5\nmse = 703678.4218\nsamples = 32\nvalue = [[4.64]\n[2024.8125]\n[12.7644]]"] ;
0 -> 1 [labeldistance=2.5, labelangle=45, headlabel="True"] ;
2 [label="wr_rnd <= 50.0\nmse = 1633562.6582\nsamples = 11\nvalue = [[6.4345]\n[2905.8182]\n[11.2173]]"] ;
1 -> 2 ;
3 [label="q_dep <= 10.0\nmse = 2089289.9334\nsamples = 5\nvalue = [[9.732]\n[4469.2]\n[3.726]]"] ;
2 -> 3 ;
4 [label="wr_size <= 2.5\nmse = 201087.7407\nsamples = 3\nvalue = [[7.51]\n[2923.3333]\n[0.76]]"] ;
3 -> 4 ;
5 [label="mse = 0.0\nsamples = 1\nvalue = [[3.92]\n[4009.0]\n[0.25]]"] ;
4 -> 5 ;
6 [label="mse = 6960.2962\nsamples = 2\nvalue = [[9.305]\n[2380.5]\n[1.015]]"] ;
4 -> 6 ;
7 [label="q_dep <= 40.0\nmse = 1934446.3655\nsamples = 2\nvalue = [[13.065]\n[6788.0]\n[8.175]]"] ;
3 -> 7 ;
8 [label="mse = 0.0\nsamples = 1\nvalue = [[8.98]\n[9197.0]\n[1.74]]"] ;
7 -> 8 ;
9 [label="mse = -0.0\nsamples = 1\nvalue = [[17.15]\n[4379.0]\n[14.61]]"] ;
7 -> 9 ;
10 [label="wr_size <= 2.5\nmse = 9043.3216\nsamples = 6\nvalue = [[3.6867]\n[1603.0]\n[17.46]]"] ;
2 -> 10 ;
11 [label="q_dep <= 40.0\nmse = 145.3611\nsamples = 3\nvalue = [[1.7267]\n[1765.6667]\n[15.7667]]"] ;
10 -> 11 ;
12 [label="mse = 64.5357\nsamples = 2\nvalue = [[1.715]\n[1758.5]\n[5.66]]"] ;
11 -> 12 ;
13 [label="mse = -0.0\nsamples = 1\nvalue = [[1.75]\n[1780.0]\n[35.98]]"] ;
11 -> 13 ;
14 [label="q_dep <= 10.0\nmse = 296.5131\nsamples = 3\nvalue = [[5.6467]\n[1440.3333]\n[19.1533]]"] ;
10 -> 14 ;
15 [label="mse = 0.0\nsamples = 1\nvalue = [[5.5]\n[1407.0]\n[2.84]]"] ;
14 -> 15 ;
16 [label="mse = 100.4552\nsamples = 2\nvalue = [[5.72]\n[1457.0]\n[27.31]]"] ;
14 -> 16 ;
17 [label="wr_size <= 2.5\nmse = 10085.1127\nsamples = 21\nvalue = [[3.7]\n[1563.3333]\n[13.5748]]"] ;
1 -> 17 ;
18 [label="q_dep <= 2.5\nmse = 1790.7181\nsamples = 10\nvalue = [[1.698]\n[1733.5]\n[11.692]]"] ;
17 -> 18 ;
19 [label="wr_stride <= 192.0\nmse = 66.0742\nsamples = 3\nvalue = [[1.5967]\n[1635.3333]\n[0.6067]]"] ;
18 -> 19 ;
20 [label="mse = 40.3334\nsamples = 2\nvalue = [[1.605]\n[1643.0]\n[0.605]]"] ;
19 -> 20 ;
21 [label="mse = -0.0\nsamples = 1\nvalue = [[1.58]\n[1620.0]\n[0.61]]"] ;
19 -> 21 ;
22 [label="q_dep <= 34.0\nmse = 538.0982\nsamples = 7\nvalue = [[1.7414]\n[1775.5714]\n[16.4429]]"] ;
18 -> 22 ;
23 [label="mse = 167.7297\nsamples = 4\nvalue = [[1.71]\n[1748.25]\n[2.2875]]"] ;
22 -> 23 ;
24 [label="mse = 50.0194\nsamples = 3\nvalue = [[1.7833]\n[1812.0]\n[35.3167]]"] ;
22 -> 24 ;
25 [label="q_dep <= 10.0\nmse = 869.2953\nsamples = 11\nvalue = [[5.52]\n[1408.6364]\n[15.2864]]"] ;
17 -> 25 ;
26 [label="q_dep <= 2.5\nmse = 599.8587\nsamples = 6\nvalue = [[5.39]\n[1379.3333]\n[2.1517]]"] ;
25 -> 26 ;
27 [label="mse = 33.3339\nsamples = 2\nvalue = [[5.22]\n[1336.0]\n[0.745]]"] ;
26 -> 27 ;
28 [label="mse = 413.1748\nsamples = 4\nvalue = [[5.475]\n[1401.0]\n[2.855]]"] ;
26 -> 28 ;
29 [label="wr_stride <= 32.5\nmse = 285.1591\nsamples = 5\nvalue = [[5.676]\n[1443.8]\n[31.048]]"] ;
25 -> 29 ;
30 [label="mse = -0.0\nsamples = 1\nvalue = [[5.52]\n[1399.0]\n[45.73]]"] ;
29 -> 30 ;
31 [label="mse = 124.9254\nsamples = 4\nvalue = [[5.715]\n[1455.0]\n[27.3775]]"] ;
29 -> 31 ;
32 [label="wr_size <= 40.0\nmse = 54664.1263\nsamples = 49\nvalue = [[15.6059]\n[362.2449]\n[142.0657]]"] ;
0 -> 32 [labeldistance=2.5, labelangle=-45, headlabel="False"] ;
33 [label="wr_stride <= 0.5\nmse = 6621.2561\nsamples = 16\nvalue = [[12.515]\n[795.875]\n[31.155]]"] ;
32 -> 33 ;
34 [label="wr_rnd <= 50.0\nmse = 7713.483\nsamples = 6\nvalue = [[14.5033]\n[922.6667]\n[30.4867]]"] ;
33 -> 34 ;
35 [label="q_dep <= 10.0\nmse = 4160.1028\nsamples = 4\nvalue = [[15.8]\n[1007.0]\n[19.235]]"] ;
34 -> 35 ;
36 [label="mse = 1065.0874\nsamples = 2\nvalue = [[14.15]\n[905.5]\n[2.67]]"] ;
35 -> 36 ;
37 [label="mse = 202.2038\nsamples = 2\nvalue = [[17.45]\n[1108.5]\n[35.8]]"] ;
35 -> 37 ;
38 [label="q_dep <= 40.0\nmse = 339.4584\nsamples = 2\nvalue = [[11.91]\n[754.0]\n[52.99]]"] ;
34 -> 38 ;
39 [label="mse = -0.0\nsamples = 1\nvalue = [[11.77]\n[750.0]\n[21.33]]"] ;
38 -> 39 ;
40 [label="mse = 0.0\nsamples = 1\nvalue = [[12.05]\n[758.0]\n[84.65]]"] ;
38 -> 40 ;
41 [label="q_dep <= 40.0\nmse = 820.1513\nsamples = 10\nvalue = [[11.322]\n[719.8]\n[31.556]]"] ;
33 -> 41 ;
42 [label="q_dep <= 2.5\nmse = 421.5031\nsamples = 7\nvalue = [[11.09]\n[708.4286]\n[8.3443]]"] ;
41 -> 42 ;
43 [label="mse = 9.8542\nsamples = 3\nvalue = [[10.4667]\n[669.6667]\n[1.49]]"] ;
42 -> 43 ;
44 [label="mse = 52.1782\nsamples = 4\nvalue = [[11.5575]\n[737.5]\n[13.485]]"] ;
42 -> 44 ;
45 [label="wr_stride <= 64.5\nmse = 18.0978\nsamples = 3\nvalue = [[11.8633]\n[746.3333]\n[85.7167]]"] ;
41 -> 45 ;
46 [label="mse = 0.0\nsamples = 1\nvalue = [[11.7]\n[736.0]\n[86.92]]"] ;
45 -> 46 ;
47 [label="mse = 0.0835\nsamples = 2\nvalue = [[11.945]\n[751.5]\n[85.115]]"] ;
45 -> 47 ;
48 [label="q_dep <= 40.0\nmse = 29879.5517\nsamples = 33\nvalue = [[17.1045]\n[152.0]\n[195.8406]]"] ;
32 -> 48 ;
49 [label="wr_size <= 160.0\nmse = 5070.6007\nsamples = 25\nvalue = [[16.5752]\n[148.16]\n[71.4176]]"] ;
48 -> 49 ;
50 [label="q_dep <= 10.0\nmse = 238.8182\nsamples = 11\nvalue = [[15.7582]\n[250.8182]\n[28.5455]]"] ;
49 -> 50 ;
51 [label="mse = 22.058\nsamples = 7\nvalue = [[15.5157]\n[247.8571]\n[9.1443]]"] ;
50 -> 51 ;
52 [label="mse = 0.1723\nsamples = 4\nvalue = [[16.1825]\n[256.0]\n[62.4975]]"] ;
50 -> 52 ;
53 [label="q_dep <= 10.0\nmse = 3078.2557\nsamples = 14\nvalue = [[17.2171]\n[67.5]\n[105.1029]]"] ;
49 -> 53 ;
54 [label="mse = 157.6412\nsamples = 9\nvalue = [[16.7489]\n[66.5556]\n[34.6778]]"] ;
53 -> 54 ;
55 [label="mse = 1.2127\nsamples = 5\nvalue = [[18.06]\n[69.2]\n[231.868]]"] ;
53 -> 55 ;
56 [label="wr_size <= 160.0\nmse = 40822.6746\nsamples = 8\nvalue = [[18.7588]\n[164.0]\n[584.6625]]"] ;
48 -> 56 ;
57 [label="wr_stride <= 0.5\nmse = 0.3802\nsamples = 4\nvalue = [[16.9425]\n[258.5]\n[247.775]]"] ;
56 -> 57 ;
58 [label="mse = 0.0\nsamples = 1\nvalue = [[17.02]\n[260.0]\n[246.79]]"] ;
57 -> 58 ;
59 [label="mse = 0.0289\nsamples = 3\nvalue = [[16.9167]\n[258.0]\n[248.1033]]"] ;
57 -> 59 ;
60 [label="wr_rnd <= 50.0\nmse = 27.1448\nsamples = 4\nvalue = [[20.575]\n[69.5]\n[921.55]]"] ;
56 -> 60 ;
61 [label="mse = 26.097\nsamples = 3\nvalue = [[20.5667]\n[69.3333]\n[918.8033]]"] ;
60 -> 61 ;
62 [label="mse = 0.0\nsamples = 1\nvalue = [[20.6]\n[70.0]\n[929.79]]"] ;
60 -> 62 ;
}