digraph Tree {
node [shape=box] ;
0 [label="wr_rnd <= 50.0\nmse = 1785675.9028\nsamples = 90\nvalue = [[1.6324]\n[88.3778]\n[1546.7984]]"] ;
1 [label="q_dep <= 40.0\nmse = 754039.9497\nsamples = 73\nvalue = [[1.9153]\n[108.6164]\n[825.3637]]"] ;
0 -> 1 [labeldistance=2.5, labelangle=45, headlabel="True"] ;
2 [label="q_dep <= 10.0\nmse = 50783.9639\nsamples = 58\nvalue = [[1.5919]\n[69.1552]\n[284.5716]]"] ;
1 -> 2 ;
3 [label="wr_stride <= 0.5\nmse = 7235.3905\nsamples = 38\nvalue = [[1.5247]\n[68.7368]\n[101.8466]]"] ;
2 -> 3 ;
4 [label="wr_size <= 10.0\nmse = 8582.3609\nsamples = 6\nvalue = [[3.3033]\n[250.6667]\n[17.5333]]"] ;
3 -> 4 ;
5 [label="mse = 636.2271\nsamples = 2\nvalue = [[1.75]\n[446.5]\n[6.39]]"] ;
4 -> 5 ;
6 [label="mse = 2936.1075\nsamples = 4\nvalue = [[4.08]\n[152.75]\n[23.105]]"] ;
4 -> 6 ;
7 [label="q_dep <= 2.5\nmse = 3998.4718\nsamples = 32\nvalue = [[1.1913]\n[34.625]\n[117.6553]]"] ;
3 -> 7 ;
8 [label="mse = 702.0294\nsamples = 17\nvalue = [[1.1694]\n[37.7059]\n[47.16]]"] ;
7 -> 8 ;
9 [label="mse = 3721.669\nsamples = 15\nvalue = [[1.216]\n[31.1333]\n[197.55]]"] ;
7 -> 9 ;
10 [label="wr_stride <= 96.0\nmse = 72202.5336\nsamples = 20\nvalue = [[1.7195]\n[69.95]\n[631.749]]"] ;
2 -> 10 ;
11 [label="wr_size <= 160.0\nmse = 21741.8394\nsamples = 11\nvalue = [[2.23]\n[107.5455]\n[303.1691]]"] ;
10 -> 11 ;
12 [label="mse = 13170.0483\nsamples = 10\nvalue = [[1.903]\n[116.4]\n[249.763]]"] ;
11 -> 12 ;
13 [label="mse = -0.0\nsamples = 1\nvalue = [[5.5]\n[19.0]\n[837.23]]"] ;
11 -> 13 ;
14 [label="wr_size <= 40.0\nmse = 34850.9714\nsamples = 9\nvalue = [[1.0956]\n[24.0]\n[1033.3467]]"] ;
10 -> 14 ;
15 [label="mse = 24784.2425\nsamples = 5\nvalue = [[0.236]\n[33.6]\n[832.466]]"] ;
14 -> 15 ;
16 [label="mse = 9516.3128\nsamples = 4\nvalue = [[2.17]\n[12.0]\n[1284.4475]]"] ;
14 -> 16 ;
17 [label="wr_size <= 160.0\nmse = 1629069.888\nsamples = 15\nvalue = [[3.166]\n[261.2]\n[2916.4267]]"] ;
1 -> 17 ;
18 [label="wr_stride <= 32.5\nmse = 914391.8657\nsamples = 11\nvalue = [[2.0445]\n[351.7273]\n[1950.9491]]"] ;
17 -> 18 ;
19 [label="wr_size <= 2.5\nmse = 465727.1997\nsamples = 5\nvalue = [[3.354]\n[740.4]\n[613.488]]"] ;
18 -> 19 ;
20 [label="mse = 0.0\nsamples = 1\nvalue = [[2.82]\n[2874.0]\n[22.25]]"] ;
19 -> 20 ;
21 [label="mse = 71553.6228\nsamples = 4\nvalue = [[3.4875]\n[207.0]\n[761.2975]]"] ;
19 -> 21 ;
22 [label="wr_stride <= 192.0\nmse = 300382.138\nsamples = 6\nvalue = [[0.9533]\n[27.8333]\n[3065.5]]"] ;
18 -> 22 ;
23 [label="mse = 194088.7067\nsamples = 4\nvalue = [[1.255]\n[30.0]\n[2564.3925]]"] ;
22 -> 23 ;
24 [label="mse = 10741.9764\nsamples = 2\nvalue = [[0.35]\n[23.5]\n[4067.715]]"] ;
22 -> 24 ;
25 [label="wr_stride <= 96.0\nmse = 362004.0323\nsamples = 4\nvalue = [[6.25]\n[12.25]\n[5571.49]]"] ;
17 -> 25 ;
26 [label="wr_stride <= 32.5\nmse = 7043.0108\nsamples = 2\nvalue = [[6.85]\n[14.5]\n[4585.72]]"] ;
25 -> 26 ;
27 [label="mse = 0.0\nsamples = 1\nvalue = [[7.25]\n[16.0]\n[4731.07]]"] ;
26 -> 27 ;
28 [label="mse = 0.0\nsamples = 1\nvalue = [[6.45]\n[13.0]\n[4440.37]]"] ;
26 -> 28 ;
29 [label="wr_stride <= 192.0\nmse = 69133.1102\nsamples = 2\nvalue = [[5.65]\n[10.0]\n[6557.26]]"] ;
25 -> 29 ;
30 [label="mse = 0.0\nsamples = 1\nvalue = [[5.9]\n[11.0]\n[6101.85]]"] ;
29 -> 30 ;
31 [label="mse = 0.0\nsamples = 1\nvalue = [[5.4]\n[9.0]\n[7012.67]]"] ;
29 -> 31 ;
32 [label="q_dep <= 10.0\nmse = 2268505.9673\nsamples = 17\nvalue = [[0.4176]\n[1.4706]\n[4644.7241]]"] ;
0 -> 32 [labeldistance=2.5, labelangle=-45, headlabel="False"] ;
33 [label="q_dep <= 2.5\nmse = 358925.6984\nsamples = 7\nvalue = [[0.0857]\n[1.1429]\n[1683.6871]]"] ;
32 -> 33 ;
34 [label="wr_size <= 40.0\nmse = 3285.2813\nsamples = 4\nvalue = [[0.105]\n[1.25]\n[792.9525]]"] ;
33 -> 34 ;
35 [label="wr_size <= 10.0\nmse = 132.6179\nsamples = 2\nvalue = [[0.015]\n[1.5]\n[695.19]]"] ;
34 -> 35 ;
36 [label="mse = 0.0\nsamples = 1\nvalue = [[0.01]\n[2.0]\n[675.25]]"] ;
35 -> 36 ;
37 [label="mse = -0.0\nsamples = 1\nvalue = [[0.02]\n[1.0]\n[715.13]]"] ;
35 -> 37 ;
38 [label="wr_size <= 160.0\nmse = 66.2267\nsamples = 2\nvalue = [[0.195]\n[1.0]\n[890.715]]"] ;
34 -> 38 ;
39 [label="mse = 0.0\nsamples = 1\nvalue = [[0.09]\n[1.0]\n[904.81]]"] ;
38 -> 39 ;
40 [label="mse = 0.0\nsamples = 1\nvalue = [[0.3]\n[1.0]\n[876.62]]"] ;
38 -> 40 ;
41 [label="wr_size <= 40.0\nmse = 10319.216\nsamples = 3\nvalue = [[0.06]\n[1.0]\n[2871.3333]]"] ;
33 -> 41 ;
42 [label="wr_size <= 10.0\nmse = 2391.081\nsamples = 2\nvalue = [[0.02]\n[1.0]\n[2985.735]]"] ;
41 -> 42 ;
43 [label="mse = 0.0\nsamples = 1\nvalue = [[0.01]\n[1.0]\n[2901.04]]"] ;
42 -> 43 ;
44 [label="mse = 0.0\nsamples = 1\nvalue = [[0.03]\n[1.0]\n[3070.43]]"] ;
42 -> 44 ;
45 [label="mse = -0.0\nsamples = 1\nvalue = [[0.14]\n[1.0]\n[2642.53]]"] ;
41 -> 45 ;
46 [label="wr_size <= 10.0\nmse = 127341.8826\nsamples = 10\nvalue = [[0.65]\n[1.7]\n[6717.45]]"] ;
32 -> 46 ;
47 [label="q_dep <= 40.0\nmse = 44039.7452\nsamples = 4\nvalue = [[0.0225]\n[1.5]\n[6342.67]]"] ;
46 -> 47 ;
48 [label="wr_size <= 2.5\nmse = 1973.7675\nsamples = 2\nvalue = [[0.01]\n[1.0]\n[6050.34]]"] ;
47 -> 48 ;
49 [label="mse = 0.0\nsamples = 1\nvalue = [[0.0]\n[1.0]\n[6127.29]]"] ;
48 -> 49 ;
50 [label="mse = 0.0\nsamples = 1\nvalue = [[0.02]\n[1.0]\n[5973.39]]"] ;
48 -> 50 ;
51 [label="wr_size <= 2.5\nmse = 29134.3367\nsamples = 2\nvalue = [[0.035]\n[2.0]\n[6635.0]]"] ;
47 -> 51 ;
52 [label="mse = 0.0\nsamples = 1\nvalue = [[0.01]\n[2.0]\n[6930.64]]"] ;
51 -> 52 ;
53 [label="mse = 0.0\nsamples = 1\nvalue = [[0.06]\n[2.0]\n[6339.36]]"] ;
51 -> 53 ;
54 [label="wr_size <= 160.0\nmse = 130854.2401\nsamples = 6\nvalue = [[1.0683]\n[1.8333]\n[6967.3033]]"] ;
46 -> 54 ;
55 [label="q_dep <= 40.0\nmse = 118621.9279\nsamples = 4\nvalue = [[0.39]\n[1.75]\n[6804.2275]]"] ;
54 -> 55 ;
56 [label="mse = 107596.2503\nsamples = 2\nvalue = [[0.17]\n[1.0]\n[7189.505]]"] ;
55 -> 56 ;
57 [label="mse = 30688.0303\nsamples = 2\nvalue = [[0.61]\n[2.5]\n[6418.95]]"] ;
55 -> 57 ;
58 [label="q_dep <= 40.0\nmse = 102130.4754\nsamples = 2\nvalue = [[2.425]\n[2.0]\n[7293.455]]"] ;
54 -> 58 ;
59 [label="mse = 0.0\nsamples = 1\nvalue = [[1.2]\n[2.0]\n[6739.93]]"] ;
58 -> 59 ;
60 [label="mse = 0.0\nsamples = 1\nvalue = [[3.65]\n[2.0]\n[7846.98]]"] ;
58 -> 60 ;
}