digraph Tree {
node [shape=box] ;
0 [label="q_dep <= 40.0\nmse = 887148.5261\nsamples = 346\nvalue = [[3.671]\n[290.104]\n[761.4984]]"] ;
1 [label="wr_ratio <= 12.5\nmse = 237120.9442\nsamples = 263\nvalue = [[3.4078]\n[273.4639]\n[258.093]]"] ;
0 -> 1 [labeldistance=2.5, labelangle=45, headlabel="True"] ;
2 [label="wr_size <= 10.0\nmse = 666886.7001\nsamples = 51\nvalue = [[11.2924]\n[1020.1961]\n[35.6896]]"] ;
1 -> 2 ;
3 [label="wr_stride <= 0.5\nmse = 1039868.8793\nsamples = 19\nvalue = [[4.5684]\n[2159.6316]\n[2.6326]]"] ;
2 -> 3 ;
4 [label="q_dep <= 10.0\nmse = 2610746.8408\nsamples = 4\nvalue = [[7.8775]\n[4491.75]\n[1.005]]"] ;
3 -> 4 ;
5 [label="mse = 201087.7407\nsamples = 3\nvalue = [[7.51]\n[2923.3333]\n[0.76]]"] ;
4 -> 5 ;
6 [label="mse = -0.0\nsamples = 1\nvalue = [[8.98]\n[9197.0]\n[1.74]]"] ;
4 -> 6 ;
7 [label="wr_size <= 2.5\nmse = 8600.6308\nsamples = 15\nvalue = [[3.686]\n[1537.7333]\n[3.0667]]"] ;
3 -> 7 ;
8 [label="mse = 1165.2252\nsamples = 7\nvalue = [[1.6614]\n[1699.8571]\n[1.5671]]"] ;
7 -> 8 ;
9 [label="mse = 729.0061\nsamples = 8\nvalue = [[5.4575]\n[1395.875]\n[4.3787]]"] ;
7 -> 9 ;
10 [label="wr_size <= 40.0\nmse = 35543.0343\nsamples = 32\nvalue = [[15.2847]\n[343.6562]\n[55.3172]]"] ;
2 -> 10 ;
11 [label="wr_stride <= 0.5\nmse = 6072.0616\nsamples = 10\nvalue = [[12.311]\n[786.6]\n[7.833]]"] ;
10 -> 11 ;
12 [label="mse = 3409.4123\nsamples = 3\nvalue = [[15.16]\n[969.0]\n[6.64]]"] ;
11 -> 12 ;
13 [label="mse = 421.5031\nsamples = 7\nvalue = [[11.09]\n[708.4286]\n[8.3443]]"] ;
11 -> 13 ;
14 [label="wr_size <= 160.0\nmse = 5200.5825\nsamples = 22\nvalue = [[16.6364]\n[142.3182]\n[76.9009]]"] ;
10 -> 14 ;
15 [label="mse = 240.3005\nsamples = 9\nvalue = [[15.7067]\n[250.1111]\n[26.1822]]"] ;
14 -> 15 ;
16 [label="mse = 3091.9653\nsamples = 13\nvalue = [[17.28]\n[67.6923]\n[112.0138]]"] ;
14 -> 16 ;
17 [label="q_dep <= 10.0\nmse = 73336.5609\nsamples = 212\nvalue = [[1.511]\n[93.8255]\n[311.5957]]"] ;
1 -> 17 ;
18 [label="wr_stride <= 32.5\nmse = 11258.0957\nsamples = 142\nvalue = [[1.4632]\n[92.169]\n[109.0711]]"] ;
17 -> 18 ;
19 [label="wr_size <= 40.0\nmse = 11201.343\nsamples = 57\nvalue = [[2.2049]\n[192.0351]\n[46.0258]]"] ;
18 -> 19 ;
20 [label="mse = 7033.8639\nsamples = 36\nvalue = [[1.5286]\n[283.4444]\n[12.6111]]"] ;
19 -> 20 ;
21 [label="mse = 3653.2906\nsamples = 21\nvalue = [[3.3643]\n[35.3333]\n[103.3081]]"] ;
19 -> 21 ;
22 [label="q_dep <= 2.5\nmse = 6087.4306\nsamples = 85\nvalue = [[0.9659]\n[25.2]\n[151.3485]]"] ;
18 -> 22 ;
23 [label="mse = 472.5401\nsamples = 43\nvalue = [[0.8974]\n[25.9302]\n[56.9209]]"] ;
22 -> 23 ;
24 [label="mse = 5677.28\nsamples = 42\nvalue = [[1.036]\n[24.4524]\n[248.0243]]"] ;
22 -> 24 ;
25 [label="wr_size <= 160.0\nmse = 115264.7542\nsamples = 70\nvalue = [[1.608]\n[97.1857]\n[722.4314]]"] ;
17 -> 25 ;
26 [label="wr_stride <= 96.0\nmse = 70506.3924\nsamples = 57\nvalue = [[1.1626]\n[116.7895]\n[538.1188]]"] ;
25 -> 26 ;
27 [label="mse = 24504.2605\nsamples = 33\nvalue = [[1.7045]\n[183.0]\n[241.6952]]"] ;
26 -> 27 ;
28 [label="mse = 33340.1683\nsamples = 24\nvalue = [[0.4175]\n[25.75]\n[945.7012]]"] ;
26 -> 28 ;
29 [label="wr_stride <= 32.5\nmse = 41140.0015\nsamples = 13\nvalue = [[3.5608]\n[11.2308]\n[1530.5715]]"] ;
25 -> 29 ;
30 [label="mse = 11357.3653\nsamples = 4\nvalue = [[4.2975]\n[14.25]\n[1149.53]]"] ;
29 -> 30 ;
31 [label="mse = 23304.6289\nsamples = 9\nvalue = [[3.2333]\n[9.8889]\n[1699.9233]]"] ;
29 -> 31 ;
32 [label="wr_size <= 160.0\nmse = 1829845.4762\nsamples = 83\nvalue = [[4.5051]\n[342.8313]\n[2356.6261]]"] ;
0 -> 32 [labeldistance=2.5, labelangle=-45, headlabel="False"] ;
33 [label="wr_stride <= 96.0\nmse = 1210051.9939\nsamples = 65\nvalue = [[3.3837]\n[431.8462]\n[1672.8146]]"] ;
32 -> 33 ;
34 [label="wr_ratio <= 12.5\nmse = 477350.5937\nsamples = 38\nvalue = [[4.1308]\n[544.3947]\n[776.8408]]"] ;
33 -> 34 ;
35 [label="wr_size <= 10.0\nmse = 509209.6101\nsamples = 8\nvalue = [[11.6775]\n[1425.875]\n[97.545]]"] ;
34 -> 35 ;
36 [label="mse = 507348.7916\nsamples = 4\nvalue = [[7.5475]\n[2258.5]\n[34.95]]"] ;
35 -> 36 ;
37 [label="mse = 46270.7077\nsamples = 4\nvalue = [[15.8075]\n[593.25]\n[160.14]]"] ;
35 -> 37 ;
38 [label="wr_size <= 40.0\nmse = 329408.122\nsamples = 30\nvalue = [[2.1183]\n[309.3333]\n[957.9863]]"] ;
34 -> 38 ;
39 [label="mse = 217330.1143\nsamples = 21\nvalue = [[1.3438]\n[420.5238]\n[595.7614]]"] ;
38 -> 39 ;
40 [label="mse = 218702.8717\nsamples = 9\nvalue = [[3.9256]\n[49.8889]\n[1803.1778]]"] ;
38 -> 40 ;
41 [label="wr_ratio <= 12.5\nmse = 1320306.1863\nsamples = 27\nvalue = [[2.3322]\n[273.4444]\n[2933.8148]]"] ;
33 -> 41 ;
42 [label="wr_size <= 10.0\nmse = 119186.5637\nsamples = 6\nvalue = [[8.3667]\n[1145.0]\n[88.6333]]"] ;
41 -> 42 ;
43 [label="mse = 9067.0463\nsamples = 3\nvalue = [[3.1233]\n[1703.0]\n[37.96]]"] ;
42 -> 43 ;
44 [label="mse = 19999.895\nsamples = 3\nvalue = [[13.61]\n[587.0]\n[139.3067]]"] ;
42 -> 44 ;
45 [label="wr_ratio <= 37.5\nmse = 579233.8543\nsamples = 21\nvalue = [[0.6081]\n[24.4286]\n[3746.7238]]"] ;
41 -> 45 ;
46 [label="mse = 856591.5821\nsamples = 6\nvalue = [[0.66]\n[14.0]\n[4927.96]]"] ;
45 -> 46 ;
47 [label="mse = 207810.9268\nsamples = 15\nvalue = [[0.5873]\n[28.6]\n[3274.2293]]"] ;
45 -> 47 ;
48 [label="wr_ratio <= 12.5\nmse = 1428639.6878\nsamples = 18\nvalue = [[8.5544]\n[21.3889]\n[4825.9456]]"] ;
32 -> 48 ;
49 [label="wr_stride <= 0.5\nmse = 26.097\nsamples = 3\nvalue = [[20.5667]\n[69.3333]\n[918.8033]]"] ;
48 -> 49 ;
50 [label="mse = 0.0\nsamples = 1\nvalue = [[20.75]\n[70.0]\n[906.66]]"] ;
49 -> 50 ;
51 [label="wr_stride <= 64.5\nmse = 2.1609\nsamples = 2\nvalue = [[20.475]\n[69.0]\n[924.875]]"] ;
49 -> 51 ;
52 [label="mse = 0.0\nsamples = 1\nvalue = [[20.4]\n[69.0]\n[927.42]]"] ;
51 -> 52 ;
53 [label="mse = 0.0\nsamples = 1\nvalue = [[20.55]\n[69.0]\n[922.33]]"] ;
51 -> 53 ;
54 [label="wr_stride <= 96.0\nmse = 492906.1413\nsamples = 15\nvalue = [[6.152]\n[11.8]\n[5607.374]]"] ;
48 -> 54 ;
55 [label="wr_ratio <= 37.5\nmse = 362287.1267\nsamples = 10\nvalue = [[6.623]\n[13.6]\n[5019.518]]"] ;
54 -> 55 ;
56 [label="mse = 11368.2982\nsamples = 3\nvalue = [[5.6133]\n[9.3333]\n[6105.9067]]"] ;
55 -> 56 ;
57 [label="mse = 271811.6126\nsamples = 7\nvalue = [[7.0557]\n[15.4286]\n[4553.9229]]"] ;
55 -> 57 ;
58 [label="wr_ratio <= 37.5\nmse = 62987.8933\nsamples = 5\nvalue = [[5.21]\n[8.2]\n[6783.086]]"] ;
54 -> 58 ;
59 [label="mse = 24977.2909\nsamples = 2\nvalue = [[4.7]\n[6.0]\n[7120.785]]"] ;
58 -> 59 ;
60 [label="mse = 46089.1413\nsamples = 3\nvalue = [[5.55]\n[9.6667]\n[6557.9533]]"] ;
58 -> 60 ;
}