digraph Tree {
node [shape=box] ;
0 [label="q_dep <= 10.0\nmse = 2268505.9673\nsamples = 17\nvalue = [[0.4176]\n[1.4706]\n[4644.7241]]"] ;
1 [label="q_dep <= 2.5\nmse = 358925.6984\nsamples = 7\nvalue = [[0.0857]\n[1.1429]\n[1683.6871]]"] ;
0 -> 1 [labeldistance=2.5, labelangle=45, headlabel="True"] ;
2 [label="wr_size <= 40.0\nmse = 3285.2813\nsamples = 4\nvalue = [[0.105]\n[1.25]\n[792.9525]]"] ;
1 -> 2 ;
3 [label="wr_size <= 10.0\nmse = 132.6179\nsamples = 2\nvalue = [[0.015]\n[1.5]\n[695.19]]"] ;
2 -> 3 ;
4 [label="mse = 0.0\nsamples = 1\nvalue = [[0.01]\n[2.0]\n[675.25]]"] ;
3 -> 4 ;
5 [label="mse = -0.0\nsamples = 1\nvalue = [[0.02]\n[1.0]\n[715.13]]"] ;
3 -> 5 ;
6 [label="wr_size <= 160.0\nmse = 66.2267\nsamples = 2\nvalue = [[0.195]\n[1.0]\n[890.715]]"] ;
2 -> 6 ;
7 [label="mse = 0.0\nsamples = 1\nvalue = [[0.09]\n[1.0]\n[904.81]]"] ;
6 -> 7 ;
8 [label="mse = 0.0\nsamples = 1\nvalue = [[0.3]\n[1.0]\n[876.62]]"] ;
6 -> 8 ;
9 [label="wr_size <= 40.0\nmse = 10319.216\nsamples = 3\nvalue = [[0.06]\n[1.0]\n[2871.3333]]"] ;
1 -> 9 ;
10 [label="wr_size <= 10.0\nmse = 2391.081\nsamples = 2\nvalue = [[0.02]\n[1.0]\n[2985.735]]"] ;
9 -> 10 ;
11 [label="mse = 0.0\nsamples = 1\nvalue = [[0.01]\n[1.0]\n[2901.04]]"] ;
10 -> 11 ;
12 [label="mse = 0.0\nsamples = 1\nvalue = [[0.03]\n[1.0]\n[3070.43]]"] ;
10 -> 12 ;
13 [label="mse = -0.0\nsamples = 1\nvalue = [[0.14]\n[1.0]\n[2642.53]]"] ;
9 -> 13 ;
14 [label="wr_size <= 10.0\nmse = 127341.8826\nsamples = 10\nvalue = [[0.65]\n[1.7]\n[6717.45]]"] ;
0 -> 14 [labeldistance=2.5, labelangle=-45, headlabel="False"] ;
15 [label="q_dep <= 40.0\nmse = 44039.7452\nsamples = 4\nvalue = [[0.0225]\n[1.5]\n[6342.67]]"] ;
14 -> 15 ;
16 [label="wr_size <= 2.5\nmse = 1973.7675\nsamples = 2\nvalue = [[0.01]\n[1.0]\n[6050.34]]"] ;
15 -> 16 ;
17 [label="mse = 0.0\nsamples = 1\nvalue = [[0.0]\n[1.0]\n[6127.29]]"] ;
16 -> 17 ;
18 [label="mse = 0.0\nsamples = 1\nvalue = [[0.02]\n[1.0]\n[5973.39]]"] ;
16 -> 18 ;
19 [label="wr_size <= 2.5\nmse = 29134.3367\nsamples = 2\nvalue = [[0.035]\n[2.0]\n[6635.0]]"] ;
15 -> 19 ;
20 [label="mse = 0.0\nsamples = 1\nvalue = [[0.01]\n[2.0]\n[6930.64]]"] ;
19 -> 20 ;
21 [label="mse = 0.0\nsamples = 1\nvalue = [[0.06]\n[2.0]\n[6339.36]]"] ;
19 -> 21 ;
22 [label="wr_size <= 160.0\nmse = 130854.2401\nsamples = 6\nvalue = [[1.0683]\n[1.8333]\n[6967.3033]]"] ;
14 -> 22 ;
23 [label="q_dep <= 40.0\nmse = 118621.9279\nsamples = 4\nvalue = [[0.39]\n[1.75]\n[6804.2275]]"] ;
22 -> 23 ;
24 [label="wr_size <= 40.0\nmse = 107596.2503\nsamples = 2\nvalue = [[0.17]\n[1.0]\n[7189.505]]"] ;
23 -> 24 ;
25 [label="mse = 0.0\nsamples = 1\nvalue = [[0.07]\n[1.0]\n[7757.65]]"] ;
24 -> 25 ;
26 [label="mse = 0.0\nsamples = 1\nvalue = [[0.27]\n[1.0]\n[6621.36]]"] ;
24 -> 26 ;
27 [label="wr_size <= 40.0\nmse = 30688.0303\nsamples = 2\nvalue = [[0.61]\n[2.5]\n[6418.95]]"] ;
23 -> 27 ;
28 [label="mse = 0.0\nsamples = 1\nvalue = [[0.23]\n[2.0]\n[6115.53]]"] ;
27 -> 28 ;
29 [label="mse = 0.0\nsamples = 1\nvalue = [[0.99]\n[3.0]\n[6722.37]]"] ;
27 -> 29 ;
30 [label="q_dep <= 40.0\nmse = 102130.4754\nsamples = 2\nvalue = [[2.425]\n[2.0]\n[7293.455]]"] ;
22 -> 30 ;
31 [label="mse = 0.0\nsamples = 1\nvalue = [[1.2]\n[2.0]\n[6739.93]]"] ;
30 -> 31 ;
32 [label="mse = 0.0\nsamples = 1\nvalue = [[3.65]\n[2.0]\n[7846.98]]"] ;
30 -> 32 ;
}