digraph Tree {
node [shape=box] ;
0 [label="wr_size <= 10.0\nmse = 601542.9595\nsamples = 68\nvalue = [[11.4887]\n[1036.9853]\n[86.5991]]"] ;
1 [label="wr_stride <= 0.5\nmse = 847131.6113\nsamples = 26\nvalue = [[4.86]\n[2122.1538]\n[11.6808]]"] ;
0 -> 1 [labeldistance=2.5, labelangle=45, headlabel="True"] ;
2 [label="q_dep <= 10.0\nmse = 2089289.9334\nsamples = 5\nvalue = [[9.732]\n[4469.2]\n[3.726]]"] ;
1 -> 2 ;
3 [label="wr_size <= 2.5\nmse = 201087.7407\nsamples = 3\nvalue = [[7.51]\n[2923.3333]\n[0.76]]"] ;
2 -> 3 ;
4 [label="mse = 0.0\nsamples = 1\nvalue = [[3.92]\n[4009.0]\n[0.25]]"] ;
3 -> 4 ;
5 [label="q_dep <= 2.5\nmse = 6960.2962\nsamples = 2\nvalue = [[9.305]\n[2380.5]\n[1.015]]"] ;
3 -> 5 ;
6 [label="mse = -0.0\nsamples = 1\nvalue = [[8.74]\n[2236.0]\n[0.45]]"] ;
5 -> 6 ;
7 [label="mse = 0.0\nsamples = 1\nvalue = [[9.87]\n[2525.0]\n[1.58]]"] ;
5 -> 7 ;
8 [label="wr_size <= 2.5\nmse = 1934446.3655\nsamples = 2\nvalue = [[13.065]\n[6788.0]\n[8.175]]"] ;
2 -> 8 ;
9 [label="mse = 0.0\nsamples = 1\nvalue = [[8.98]\n[9197.0]\n[1.74]]"] ;
8 -> 9 ;
10 [label="mse = -0.0\nsamples = 1\nvalue = [[17.15]\n[4379.0]\n[14.61]]"] ;
8 -> 10 ;
11 [label="wr_size <= 2.5\nmse = 10085.1127\nsamples = 21\nvalue = [[3.7]\n[1563.3333]\n[13.5748]]"] ;
1 -> 11 ;
12 [label="q_dep <= 2.5\nmse = 1790.7181\nsamples = 10\nvalue = [[1.698]\n[1733.5]\n[11.692]]"] ;
11 -> 12 ;
13 [label="wr_stride <= 192.0\nmse = 66.0742\nsamples = 3\nvalue = [[1.5967]\n[1635.3333]\n[0.6067]]"] ;
12 -> 13 ;
14 [label="mse = 40.3334\nsamples = 2\nvalue = [[1.605]\n[1643.0]\n[0.605]]"] ;
13 -> 14 ;
15 [label="mse = 0.0\nsamples = 1\nvalue = [[1.58]\n[1620.0]\n[0.61]]"] ;
13 -> 15 ;
16 [label="q_dep <= 34.0\nmse = 538.0982\nsamples = 7\nvalue = [[1.7414]\n[1775.5714]\n[16.4429]]"] ;
12 -> 16 ;
17 [label="mse = 167.7297\nsamples = 4\nvalue = [[1.71]\n[1748.25]\n[2.2875]]"] ;
16 -> 17 ;
18 [label="mse = 50.0194\nsamples = 3\nvalue = [[1.7833]\n[1812.0]\n[35.3167]]"] ;
16 -> 18 ;
19 [label="q_dep <= 10.0\nmse = 869.2953\nsamples = 11\nvalue = [[5.52]\n[1408.6364]\n[15.2864]]"] ;
11 -> 19 ;
20 [label="q_dep <= 2.5\nmse = 599.8587\nsamples = 6\nvalue = [[5.39]\n[1379.3333]\n[2.1517]]"] ;
19 -> 20 ;
21 [label="mse = 33.3339\nsamples = 2\nvalue = [[5.22]\n[1336.0]\n[0.745]]"] ;
20 -> 21 ;
22 [label="mse = 413.1748\nsamples = 4\nvalue = [[5.475]\n[1401.0]\n[2.855]]"] ;
20 -> 22 ;
23 [label="wr_stride <= 32.5\nmse = 285.1591\nsamples = 5\nvalue = [[5.676]\n[1443.8]\n[31.048]]"] ;
19 -> 23 ;
24 [label="mse = -0.0\nsamples = 1\nvalue = [[5.52]\n[1399.0]\n[45.73]]"] ;
23 -> 24 ;
25 [label="mse = 124.9254\nsamples = 4\nvalue = [[5.715]\n[1455.0]\n[27.3775]]"] ;
23 -> 25 ;
26 [label="wr_size <= 40.0\nmse = 54201.6941\nsamples = 42\nvalue = [[15.5921]\n[365.2143]\n[132.9771]]"] ;
0 -> 26 [labeldistance=2.5, labelangle=-45, headlabel="False"] ;
27 [label="wr_stride <= 0.5\nmse = 7397.2599\nsamples = 14\nvalue = [[12.6014]\n[801.8571]\n[28.0357]]"] ;
26 -> 27 ;
28 [label="q_dep <= 10.0\nmse = 4160.1028\nsamples = 4\nvalue = [[15.8]\n[1007.0]\n[19.235]]"] ;
27 -> 28 ;
29 [label="q_dep <= 2.5\nmse = 1065.0874\nsamples = 2\nvalue = [[14.15]\n[905.5]\n[2.67]]"] ;
28 -> 29 ;
30 [label="mse = 0.0\nsamples = 1\nvalue = [[13.26]\n[849.0]\n[1.18]]"] ;
29 -> 30 ;
31 [label="mse = 0.0\nsamples = 1\nvalue = [[15.04]\n[962.0]\n[4.16]]"] ;
29 -> 31 ;
32 [label="q_dep <= 40.0\nmse = 202.2038\nsamples = 2\nvalue = [[17.45]\n[1108.5]\n[35.8]]"] ;
28 -> 32 ;
33 [label="mse = -0.0\nsamples = 1\nvalue = [[17.18]\n[1096.0]\n[14.58]]"] ;
32 -> 33 ;
34 [label="mse = 0.0\nsamples = 1\nvalue = [[17.72]\n[1121.0]\n[57.02]]"] ;
32 -> 34 ;
35 [label="q_dep <= 40.0\nmse = 820.1513\nsamples = 10\nvalue = [[11.322]\n[719.8]\n[31.556]]"] ;
27 -> 35 ;
36 [label="q_dep <= 2.5\nmse = 421.5031\nsamples = 7\nvalue = [[11.09]\n[708.4286]\n[8.3443]]"] ;
35 -> 36 ;
37 [label="mse = 9.8542\nsamples = 3\nvalue = [[10.4667]\n[669.6667]\n[1.49]]"] ;
36 -> 37 ;
38 [label="mse = 52.1782\nsamples = 4\nvalue = [[11.5575]\n[737.5]\n[13.485]]"] ;
36 -> 38 ;
39 [label="wr_stride <= 64.5\nmse = 18.0978\nsamples = 3\nvalue = [[11.8633]\n[746.3333]\n[85.7167]]"] ;
35 -> 39 ;
40 [label="mse = 0.0\nsamples = 1\nvalue = [[11.7]\n[736.0]\n[86.92]]"] ;
39 -> 40 ;
41 [label="mse = 0.0835\nsamples = 2\nvalue = [[11.945]\n[751.5]\n[85.115]]"] ;
39 -> 41 ;
42 [label="q_dep <= 40.0\nmse = 27184.2532\nsamples = 28\nvalue = [[17.0875]\n[146.8929]\n[185.4479]]"] ;
26 -> 42 ;
43 [label="wr_size <= 160.0\nmse = 5200.5825\nsamples = 22\nvalue = [[16.6364]\n[142.3182]\n[76.9009]]"] ;
42 -> 43 ;
44 [label="q_dep <= 10.0\nmse = 240.3005\nsamples = 9\nvalue = [[15.7067]\n[250.1111]\n[26.1822]]"] ;
43 -> 44 ;
45 [label="mse = 21.1074\nsamples = 6\nvalue = [[15.4617]\n[247.0]\n[8.0283]]"] ;
44 -> 45 ;
46 [label="mse = 0.0812\nsamples = 3\nvalue = [[16.1967]\n[256.3333]\n[62.49]]"] ;
44 -> 46 ;
47 [label="q_dep <= 10.0\nmse = 3091.9653\nsamples = 13\nvalue = [[17.28]\n[67.6923]\n[112.0138]]"] ;
43 -> 47 ;
48 [label="mse = 159.553\nsamples = 8\nvalue = [[16.7925]\n[66.75]\n[37.105]]"] ;
47 -> 48 ;
49 [label="mse = 1.2127\nsamples = 5\nvalue = [[18.06]\n[69.2]\n[231.868]]"] ;
47 -> 49 ;
50 [label="wr_size <= 160.0\nmse = 40466.9733\nsamples = 6\nvalue = [[18.7417]\n[163.6667]\n[583.4533]]"] ;
42 -> 50 ;
51 [label="wr_stride <= 160.0\nmse = 0.0289\nsamples = 3\nvalue = [[16.9167]\n[258.0]\n[248.1033]]"] ;
50 -> 51 ;
52 [label="mse = 0.0005\nsamples = 2\nvalue = [[16.905]\n[258.0]\n[248.31]]"] ;
51 -> 52 ;
53 [label="mse = 0.0\nsamples = 1\nvalue = [[16.94]\n[258.0]\n[247.69]]"] ;
51 -> 53 ;
54 [label="wr_stride <= 0.5\nmse = 26.097\nsamples = 3\nvalue = [[20.5667]\n[69.3333]\n[918.8033]]"] ;
50 -> 54 ;
55 [label="mse = 0.0\nsamples = 1\nvalue = [[20.75]\n[70.0]\n[906.66]]"] ;
54 -> 55 ;
56 [label="mse = 2.1609\nsamples = 2\nvalue = [[20.475]\n[69.0]\n[924.875]]"] ;
54 -> 56 ;
}