digraph Tree {
node [shape=box] ;
0 [label="q_dep <= 10.0\nmse = 2857767.8446\nsamples = 72\nvalue = [[2.235]\n[169.375]\n[3215.2915]]"] ;
1 [label="q_dep <= 2.5\nmse = 316389.8324\nsamples = 29\nvalue = [[1.5372]\n[122.069]\n[877.6041]]"] ;
0 -> 1 [labeldistance=2.5, labelangle=45, headlabel="True"] ;
2 [label="wr_ratio <= 87.5\nmse = 19869.9834\nsamples = 16\nvalue = [[1.2088]\n[6.8125]\n[426.4331]]"] ;
1 -> 2 ;
3 [label="wr_ratio <= 37.5\nmse = 5491.7565\nsamples = 12\nvalue = [[1.5767]\n[8.6667]\n[304.26]]"] ;
2 -> 3 ;
4 [label="wr_ratio <= 12.5\nmse = 2361.2046\nsamples = 4\nvalue = [[4.4625]\n[20.5]\n[146.875]]"] ;
3 -> 4 ;
5 [label="mse = -0.0\nsamples = 1\nvalue = [[16.4]\n[65.0]\n[15.26]]"] ;
4 -> 5 ;
6 [label="mse = 267.4932\nsamples = 3\nvalue = [[0.4833]\n[5.6667]\n[190.7467]]"] ;
4 -> 6 ;
7 [label="wr_size <= 10.0\nmse = 827.4339\nsamples = 8\nvalue = [[0.1338]\n[2.75]\n[382.9525]]"] ;
3 -> 7 ;
8 [label="mse = 1094.9221\nsamples = 4\nvalue = [[0.005]\n[3.0]\n[356.8075]]"] ;
7 -> 8 ;
9 [label="mse = 104.1856\nsamples = 4\nvalue = [[0.2625]\n[2.5]\n[409.0975]]"] ;
7 -> 9 ;
10 [label="wr_size <= 40.0\nmse = 3285.2813\nsamples = 4\nvalue = [[0.105]\n[1.25]\n[792.9525]]"] ;
2 -> 10 ;
11 [label="wr_size <= 10.0\nmse = 132.6179\nsamples = 2\nvalue = [[0.015]\n[1.5]\n[695.19]]"] ;
10 -> 11 ;
12 [label="mse = 0.0\nsamples = 1\nvalue = [[0.01]\n[2.0]\n[675.25]]"] ;
11 -> 12 ;
13 [label="mse = -0.0\nsamples = 1\nvalue = [[0.02]\n[1.0]\n[715.13]]"] ;
11 -> 13 ;
14 [label="wr_size <= 160.0\nmse = 66.2267\nsamples = 2\nvalue = [[0.195]\n[1.0]\n[890.715]]"] ;
10 -> 14 ;
15 [label="mse = 0.0\nsamples = 1\nvalue = [[0.09]\n[1.0]\n[904.81]]"] ;
14 -> 15 ;
16 [label="mse = 0.0\nsamples = 1\nvalue = [[0.3]\n[1.0]\n[876.62]]"] ;
14 -> 16 ;
17 [label="wr_ratio <= 12.5\nmse = 482888.6173\nsamples = 13\nvalue = [[1.9415]\n[263.9231]\n[1432.8915]]"] ;
1 -> 17 ;
18 [label="wr_size <= 34.0\nmse = 136025.8593\nsamples = 3\nvalue = [[7.68]\n[1135.0]\n[6.99]]"] ;
17 -> 18 ;
19 [label="wr_size <= 2.5\nmse = 9521.5619\nsamples = 2\nvalue = [[3.6]\n[1576.0]\n[2.565]]"] ;
18 -> 19 ;
20 [label="mse = -0.0\nsamples = 1\nvalue = [[1.7]\n[1745.0]\n[2.29]]"] ;
19 -> 20 ;
21 [label="mse = -0.0\nsamples = 1\nvalue = [[5.5]\n[1407.0]\n[2.84]]"] ;
19 -> 21 ;
22 [label="mse = 0.0\nsamples = 1\nvalue = [[15.84]\n[253.0]\n[15.84]]"] ;
18 -> 22 ;
23 [label="wr_ratio <= 87.5\nmse = 223987.0374\nsamples = 10\nvalue = [[0.22]\n[2.6]\n[1860.662]]"] ;
17 -> 23 ;
24 [label="wr_size <= 40.0\nmse = 107097.9139\nsamples = 7\nvalue = [[0.2886]\n[3.2857]\n[1427.5171]]"] ;
23 -> 24 ;
25 [label="mse = 91954.8691\nsamples = 4\nvalue = [[0.0175]\n[2.5]\n[1722.205]]"] ;
24 -> 25 ;
26 [label="mse = 37230.6599\nsamples = 3\nvalue = [[0.65]\n[4.3333]\n[1034.6]]"] ;
24 -> 26 ;
27 [label="wr_size <= 40.0\nmse = 10319.216\nsamples = 3\nvalue = [[0.06]\n[1.0]\n[2871.3333]]"] ;
23 -> 27 ;
28 [label="mse = 2391.081\nsamples = 2\nvalue = [[0.02]\n[1.0]\n[2985.735]]"] ;
27 -> 28 ;
29 [label="mse = -0.0\nsamples = 1\nvalue = [[0.14]\n[1.0]\n[2642.53]]"] ;
27 -> 29 ;
30 [label="wr_ratio <= 12.5\nmse = 2513826.2478\nsamples = 43\nvalue = [[2.7056]\n[201.2791]\n[4791.8714]]"] ;
0 -> 30 [labeldistance=2.5, labelangle=-45, headlabel="False"] ;
31 [label="wr_size <= 10.0\nmse = 162886.889\nsamples = 9\nvalue = [[10.2778]\n[951.0]\n[160.5233]]"] ;
30 -> 31 ;
32 [label="wr_size <= 2.5\nmse = 8566.4843\nsamples = 4\nvalue = [[3.73]\n[1616.5]\n[24.9075]]"] ;
31 -> 32 ;
33 [label="q_dep <= 40.0\nmse = 65.8586\nsamples = 2\nvalue = [[1.74]\n[1776.0]\n[22.505]]"] ;
32 -> 33 ;
34 [label="mse = -0.0\nsamples = 1\nvalue = [[1.73]\n[1772.0]\n[9.03]]"] ;
33 -> 34 ;
35 [label="mse = 0.0\nsamples = 1\nvalue = [[1.75]\n[1780.0]\n[35.98]]"] ;
33 -> 35 ;
36 [label="q_dep <= 40.0\nmse = 100.4552\nsamples = 2\nvalue = [[5.72]\n[1457.0]\n[27.31]]"] ;
32 -> 36 ;
37 [label="mse = 0.0\nsamples = 1\nvalue = [[5.68]\n[1451.0]\n[11.02]]"] ;
36 -> 37 ;
38 [label="mse = -0.0\nsamples = 1\nvalue = [[5.76]\n[1463.0]\n[43.6]]"] ;
36 -> 38 ;
39 [label="wr_size <= 160.0\nmse = 64907.3195\nsamples = 5\nvalue = [[15.516]\n[418.6]\n[269.016]]"] ;
31 -> 39 ;
40 [label="wr_size <= 40.0\nmse = 22991.4321\nsamples = 4\nvalue = [[14.245]\n[505.75]\n[103.8225]]"] ;
39 -> 40 ;
41 [label="mse = 339.4584\nsamples = 2\nvalue = [[11.91]\n[754.0]\n[52.99]]"] ;
40 -> 41 ;
42 [label="mse = 2831.7673\nsamples = 2\nvalue = [[16.58]\n[257.5]\n[154.655]]"] ;
40 -> 42 ;
43 [label="mse = 0.0\nsamples = 1\nvalue = [[20.6]\n[70.0]\n[929.79]]"] ;
39 -> 43 ;
44 [label="q_dep <= 40.0\nmse = 679830.4768\nsamples = 34\nvalue = [[0.7012]\n[2.8235]\n[6017.8165]]"] ;
30 -> 44 ;
45 [label="wr_ratio <= 62.5\nmse = 704788.0999\nsamples = 17\nvalue = [[0.4294]\n[2.2941]\n[5239.6218]]"] ;
44 -> 45 ;
46 [label="wr_ratio <= 37.5\nmse = 271989.7204\nsamples = 8\nvalue = [[0.5162]\n[3.375]\n[4015.0012]]"] ;
45 -> 46 ;
47 [label="mse = 336297.9363\nsamples = 3\nvalue = [[0.73]\n[4.0]\n[4338.77]]"] ;
46 -> 47 ;
48 [label="mse = 199860.2661\nsamples = 5\nvalue = [[0.388]\n[3.0]\n[3820.74]]"] ;
46 -> 48 ;
49 [label="wr_ratio <= 87.5\nmse = 250161.4126\nsamples = 9\nvalue = [[0.3522]\n[1.3333]\n[6328.1733]]"] ;
45 -> 49 ;
50 [label="mse = 305509.1439\nsamples = 4\nvalue = [[0.4025]\n[1.5]\n[5933.485]]"] ;
49 -> 50 ;
51 [label="mse = 131109.3504\nsamples = 5\nvalue = [[0.312]\n[1.2]\n[6643.924]]"] ;
49 -> 51 ;
52 [label="wr_size <= 160.0\nmse = 251147.9508\nsamples = 17\nvalue = [[0.9729]\n[3.3529]\n[6796.0112]]"] ;
44 -> 52 ;
53 [label="wr_ratio <= 62.5\nmse = 190951.2605\nsamples = 14\nvalue = [[0.3564]\n[3.5]\n[6570.8071]]"] ;
52 -> 53 ;
54 [label="mse = 126070.0518\nsamples = 6\nvalue = [[0.3783]\n[3.8333]\n[7020.1183]]"] ;
53 -> 54 ;
55 [label="mse = 151289.3794\nsamples = 8\nvalue = [[0.34]\n[3.25]\n[6233.8237]]"] ;
53 -> 55 ;
56 [label="wr_ratio <= 50.0\nmse = 85002.5976\nsamples = 3\nvalue = [[3.85]\n[2.6667]\n[7846.9633]]"] ;
52 -> 56 ;
57 [label="mse = 0.0\nsamples = 1\nvalue = [[3.95]\n[3.0]\n[8465.43]]"] ;
56 -> 57 ;
58 [label="mse = 31878.6117\nsamples = 2\nvalue = [[3.8]\n[2.5]\n[7537.73]]"] ;
56 -> 58 ;
}