digraph Tree {
node [shape=box] ;
0 [label="q_dep <= 40.0\nmse = 1513439.324\nsamples = 418\nvalue = [[3.4237]\n[269.3086]\n[1184.1613]]"] ;
1 [label="wr_rnd <= 50.0\nmse = 699017.0369\nsamples = 313\nvalue = [[3.142]\n[254.722]\n[583.0877]]"] ;
0 -> 1 [labeldistance=2.5, labelangle=45, headlabel="True"] ;
2 [label="wr_ratio <= 12.5\nmse = 237120.9442\nsamples = 263\nvalue = [[3.4078]\n[273.4639]\n[258.093]]"] ;
1 -> 2 ;
3 [label="wr_size <= 10.0\nmse = 666886.7001\nsamples = 51\nvalue = [[11.2924]\n[1020.1961]\n[35.6896]]"] ;
2 -> 3 ;
4 [label="wr_stride <= 0.5\nmse = 1039868.8793\nsamples = 19\nvalue = [[4.5684]\n[2159.6316]\n[2.6326]]"] ;
3 -> 4 ;
5 [label="q_dep <= 10.0\nmse = 2610746.8408\nsamples = 4\nvalue = [[7.8775]\n[4491.75]\n[1.005]]"] ;
4 -> 5 ;
6 [label="mse = 201087.7407\nsamples = 3\nvalue = [[7.51]\n[2923.3333]\n[0.76]]"] ;
5 -> 6 ;
7 [label="mse = -0.0\nsamples = 1\nvalue = [[8.98]\n[9197.0]\n[1.74]]"] ;
5 -> 7 ;
8 [label="wr_size <= 2.5\nmse = 8600.6308\nsamples = 15\nvalue = [[3.686]\n[1537.7333]\n[3.0667]]"] ;
4 -> 8 ;
9 [label="mse = 1165.2252\nsamples = 7\nvalue = [[1.6614]\n[1699.8571]\n[1.5671]]"] ;
8 -> 9 ;
10 [label="mse = 729.0061\nsamples = 8\nvalue = [[5.4575]\n[1395.875]\n[4.3787]]"] ;
8 -> 10 ;
11 [label="wr_size <= 40.0\nmse = 35543.0343\nsamples = 32\nvalue = [[15.2847]\n[343.6562]\n[55.3172]]"] ;
3 -> 11 ;
12 [label="wr_stride <= 0.5\nmse = 6072.0616\nsamples = 10\nvalue = [[12.311]\n[786.6]\n[7.833]]"] ;
11 -> 12 ;
13 [label="mse = 3409.4123\nsamples = 3\nvalue = [[15.16]\n[969.0]\n[6.64]]"] ;
12 -> 13 ;
14 [label="mse = 421.5031\nsamples = 7\nvalue = [[11.09]\n[708.4286]\n[8.3443]]"] ;
12 -> 14 ;
15 [label="wr_size <= 160.0\nmse = 5200.5825\nsamples = 22\nvalue = [[16.6364]\n[142.3182]\n[76.9009]]"] ;
11 -> 15 ;
16 [label="mse = 240.3005\nsamples = 9\nvalue = [[15.7067]\n[250.1111]\n[26.1822]]"] ;
15 -> 16 ;
17 [label="mse = 3091.9653\nsamples = 13\nvalue = [[17.28]\n[67.6923]\n[112.0138]]"] ;
15 -> 17 ;
18 [label="q_dep <= 10.0\nmse = 73336.5609\nsamples = 212\nvalue = [[1.511]\n[93.8255]\n[311.5957]]"] ;
2 -> 18 ;
19 [label="wr_stride <= 32.5\nmse = 11258.0957\nsamples = 142\nvalue = [[1.4632]\n[92.169]\n[109.0711]]"] ;
18 -> 19 ;
20 [label="wr_size <= 40.0\nmse = 11201.343\nsamples = 57\nvalue = [[2.2049]\n[192.0351]\n[46.0258]]"] ;
19 -> 20 ;
21 [label="mse = 7033.8639\nsamples = 36\nvalue = [[1.5286]\n[283.4444]\n[12.6111]]"] ;
20 -> 21 ;
22 [label="mse = 3653.2906\nsamples = 21\nvalue = [[3.3643]\n[35.3333]\n[103.3081]]"] ;
20 -> 22 ;
23 [label="q_dep <= 2.5\nmse = 6087.4306\nsamples = 85\nvalue = [[0.9659]\n[25.2]\n[151.3485]]"] ;
19 -> 23 ;
24 [label="mse = 472.5401\nsamples = 43\nvalue = [[0.8974]\n[25.9302]\n[56.9209]]"] ;
23 -> 24 ;
25 [label="mse = 5677.28\nsamples = 42\nvalue = [[1.036]\n[24.4524]\n[248.0243]]"] ;
23 -> 25 ;
26 [label="wr_size <= 160.0\nmse = 115264.7542\nsamples = 70\nvalue = [[1.608]\n[97.1857]\n[722.4314]]"] ;
18 -> 26 ;
27 [label="wr_stride <= 96.0\nmse = 70506.3924\nsamples = 57\nvalue = [[1.1626]\n[116.7895]\n[538.1188]]"] ;
26 -> 27 ;
28 [label="mse = 24504.2605\nsamples = 33\nvalue = [[1.7045]\n[183.0]\n[241.6952]]"] ;
27 -> 28 ;
29 [label="mse = 33340.1683\nsamples = 24\nvalue = [[0.4175]\n[25.75]\n[945.7013]]"] ;
27 -> 29 ;
30 [label="wr_stride <= 32.5\nmse = 41140.0015\nsamples = 13\nvalue = [[3.5608]\n[11.2308]\n[1530.5715]]"] ;
26 -> 30 ;
31 [label="mse = 11357.3653\nsamples = 4\nvalue = [[4.2975]\n[14.25]\n[1149.53]]"] ;
30 -> 31 ;
32 [label="mse = 23304.6289\nsamples = 9\nvalue = [[3.2333]\n[9.8889]\n[1699.9233]]"] ;
30 -> 32 ;
33 [label="q_dep <= 10.0\nmse = 1965446.2906\nsamples = 50\nvalue = [[1.744]\n[156.14]\n[2292.5598]]"] ;
1 -> 33 ;
34 [label="q_dep <= 2.5\nmse = 316389.8324\nsamples = 29\nvalue = [[1.5372]\n[122.069]\n[877.6041]]"] ;
33 -> 34 ;
35 [label="wr_ratio <= 87.5\nmse = 19869.9834\nsamples = 16\nvalue = [[1.2088]\n[6.8125]\n[426.4331]]"] ;
34 -> 35 ;
36 [label="wr_ratio <= 37.5\nmse = 5491.7565\nsamples = 12\nvalue = [[1.5767]\n[8.6667]\n[304.26]]"] ;
35 -> 36 ;
37 [label="mse = 2361.2046\nsamples = 4\nvalue = [[4.4625]\n[20.5]\n[146.875]]"] ;
36 -> 37 ;
38 [label="mse = 827.4339\nsamples = 8\nvalue = [[0.1338]\n[2.75]\n[382.9525]]"] ;
36 -> 38 ;
39 [label="wr_size <= 40.0\nmse = 3285.2813\nsamples = 4\nvalue = [[0.105]\n[1.25]\n[792.9525]]"] ;
35 -> 39 ;
40 [label="mse = 132.6179\nsamples = 2\nvalue = [[0.015]\n[1.5]\n[695.19]]"] ;
39 -> 40 ;
41 [label="mse = 66.2267\nsamples = 2\nvalue = [[0.195]\n[1.0]\n[890.715]]"] ;
39 -> 41 ;
42 [label="wr_ratio <= 12.5\nmse = 482888.6173\nsamples = 13\nvalue = [[1.9415]\n[263.9231]\n[1432.8915]]"] ;
34 -> 42 ;
43 [label="wr_size <= 34.0\nmse = 136025.8593\nsamples = 3\nvalue = [[7.68]\n[1135.0]\n[6.99]]"] ;
42 -> 43 ;
44 [label="mse = 9521.5619\nsamples = 2\nvalue = [[3.6]\n[1576.0]\n[2.565]]"] ;
43 -> 44 ;
45 [label="mse = 0.0\nsamples = 1\nvalue = [[15.84]\n[253.0]\n[15.84]]"] ;
43 -> 45 ;
46 [label="wr_ratio <= 87.5\nmse = 223987.0374\nsamples = 10\nvalue = [[0.22]\n[2.6]\n[1860.662]]"] ;
42 -> 46 ;
47 [label="mse = 107097.9139\nsamples = 7\nvalue = [[0.2886]\n[3.2857]\n[1427.5171]]"] ;
46 -> 47 ;
48 [label="mse = 10319.216\nsamples = 3\nvalue = [[0.06]\n[1.0]\n[2871.3333]]"] ;
46 -> 48 ;
49 [label="wr_ratio <= 12.5\nmse = 2047153.4438\nsamples = 21\nvalue = [[2.0295]\n[203.1905]\n[4246.5462]]"] ;
33 -> 49 ;
50 [label="wr_size <= 10.0\nmse = 117158.6925\nsamples = 4\nvalue = [[8.83]\n[1057.0]\n[25.975]]"] ;
49 -> 50 ;
51 [label="wr_size <= 2.5\nmse = 8588.3802\nsamples = 2\nvalue = [[3.705]\n[1611.5]\n[10.025]]"] ;
50 -> 51 ;
52 [label="mse = -0.0\nsamples = 1\nvalue = [[1.73]\n[1772.0]\n[9.03]]"] ;
51 -> 52 ;
53 [label="mse = -0.0\nsamples = 1\nvalue = [[5.68]\n[1451.0]\n[11.02]]"] ;
51 -> 53 ;
54 [label="wr_size <= 40.0\nmse = 20561.7261\nsamples = 2\nvalue = [[13.955]\n[502.5]\n[41.925]]"] ;
50 -> 54 ;
55 [label="mse = -0.0\nsamples = 1\nvalue = [[11.77]\n[750.0]\n[21.33]]"] ;
54 -> 55 ;
56 [label="mse = 0.0\nsamples = 1\nvalue = [[16.14]\n[255.0]\n[62.52]]"] ;
54 -> 56 ;
57 [label="wr_ratio <= 62.5\nmse = 704788.0999\nsamples = 17\nvalue = [[0.4294]\n[2.2941]\n[5239.6218]]"] ;
49 -> 57 ;
58 [label="wr_ratio <= 37.5\nmse = 271989.7204\nsamples = 8\nvalue = [[0.5162]\n[3.375]\n[4015.0012]]"] ;
57 -> 58 ;
59 [label="mse = 336297.9363\nsamples = 3\nvalue = [[0.73]\n[4.0]\n[4338.77]]"] ;
58 -> 59 ;
60 [label="mse = 199860.2661\nsamples = 5\nvalue = [[0.388]\n[3.0]\n[3820.74]]"] ;
58 -> 60 ;
61 [label="wr_ratio <= 87.5\nmse = 250161.4126\nsamples = 9\nvalue = [[0.3522]\n[1.3333]\n[6328.1733]]"] ;
57 -> 61 ;
62 [label="mse = 305509.1439\nsamples = 4\nvalue = [[0.4025]\n[1.5]\n[5933.485]]"] ;
61 -> 62 ;
63 [label="mse = 131109.3504\nsamples = 5\nvalue = [[0.312]\n[1.2]\n[6643.924]]"] ;
61 -> 63 ;
64 [label="wr_ratio <= 12.5\nmse = 2511207.1882\nsamples = 105\nvalue = [[4.2632]\n[312.7905]\n[2975.933]]"] ;
0 -> 64 [labeldistance=2.5, labelangle=-45, headlabel="False"] ;
65 [label="wr_size <= 10.0\nmse = 349512.5446\nsamples = 22\nvalue = [[11.9318]\n[1037.0909]\n[245.8809]]"] ;
64 -> 65 ;
66 [label="wr_stride <= 0.5\nmse = 259136.9195\nsamples = 9\nvalue = [[5.23]\n[1931.7778]\n[37.0289]]"] ;
65 -> 66 ;
67 [label="wr_rnd <= 50.0\nmse = 568892.0049\nsamples = 3\nvalue = [[8.22]\n[2540.6667]\n[31.3967]]"] ;
66 -> 67 ;
68 [label="mse = 0.0\nsamples = 1\nvalue = [[17.15]\n[4379.0]\n[14.61]]"] ;
67 -> 68 ;
69 [label="wr_size <= 2.5\nmse = 8380.262\nsamples = 2\nvalue = [[3.755]\n[1621.5]\n[39.79]]"] ;
67 -> 69 ;
70 [label="mse = -0.0\nsamples = 1\nvalue = [[1.75]\n[1780.0]\n[35.98]]"] ;
69 -> 70 ;
71 [label="mse = -0.0\nsamples = 1\nvalue = [[5.76]\n[1463.0]\n[43.6]]"] ;
69 -> 71 ;
72 [label="wr_size <= 2.5\nmse = 11562.7916\nsamples = 6\nvalue = [[3.735]\n[1627.3333]\n[39.845]]"] ;
66 -> 72 ;
73 [label="wr_stride <= 96.0\nmse = 50.0194\nsamples = 3\nvalue = [[1.7833]\n[1812.0]\n[35.3167]]"] ;
72 -> 73 ;
74 [label="mse = -0.0\nsamples = 1\nvalue = [[1.77]\n[1797.0]\n[35.61]]"] ;
73 -> 74 ;
75 [label="mse = 18.7575\nsamples = 2\nvalue = [[1.79]\n[1819.5]\n[35.17]]"] ;
73 -> 75 ;
76 [label="wr_stride <= 32.5\nmse = 324.8353\nsamples = 3\nvalue = [[5.6867]\n[1442.6667]\n[44.3733]]"] ;
72 -> 76 ;
77 [label="mse = -0.0\nsamples = 1\nvalue = [[5.52]\n[1399.0]\n[45.73]]"] ;
76 -> 77 ;
78 [label="mse = 10.0915\nsamples = 2\nvalue = [[5.77]\n[1464.5]\n[43.695]]"] ;
76 -> 78 ;
79 [label="wr_size <= 160.0\nmse = 82420.5662\nsamples = 13\nvalue = [[16.5715]\n[417.6923]\n[390.4708]]"] ;
65 -> 79 ;
80 [label="wr_size <= 40.0\nmse = 32737.1851\nsamples = 9\nvalue = [[14.7922]\n[572.4444]\n[154.4356]]"] ;
79 -> 80 ;
81 [label="wr_stride <= 0.5\nmse = 7433.194\nsamples = 5\nvalue = [[13.072]\n[823.6]\n[79.764]]"] ;
80 -> 81 ;
82 [label="mse = 11047.0472\nsamples = 2\nvalue = [[14.885]\n[939.5]\n[70.835]]"] ;
81 -> 82 ;
83 [label="mse = 18.0978\nsamples = 3\nvalue = [[11.8633]\n[746.3333]\n[85.7167]]"] ;
81 -> 83 ;
84 [label="wr_stride <= 0.5\nmse = 0.3802\nsamples = 4\nvalue = [[16.9425]\n[258.5]\n[247.775]]"] ;
80 -> 84 ;
85 [label="mse = 0.0\nsamples = 1\nvalue = [[17.02]\n[260.0]\n[246.79]]"] ;
84 -> 85 ;
86 [label="mse = 0.0289\nsamples = 3\nvalue = [[16.9167]\n[258.0]\n[248.1033]]"] ;
84 -> 86 ;
87 [label="wr_rnd <= 50.0\nmse = 27.1448\nsamples = 4\nvalue = [[20.575]\n[69.5]\n[921.55]]"] ;
79 -> 87 ;
88 [label="wr_stride <= 0.5\nmse = 26.097\nsamples = 3\nvalue = [[20.5667]\n[69.3333]\n[918.8033]]"] ;
87 -> 88 ;
89 [label="mse = 0.0\nsamples = 1\nvalue = [[20.75]\n[70.0]\n[906.66]]"] ;
88 -> 89 ;
90 [label="mse = 2.1609\nsamples = 2\nvalue = [[20.475]\n[69.0]\n[924.875]]"] ;
88 -> 90 ;
91 [label="mse = 0.0\nsamples = 1\nvalue = [[20.6]\n[70.0]\n[929.79]]"] ;
87 -> 91 ;
92 [label="wr_rnd <= 50.0\nmse = 2192482.6092\nsamples = 83\nvalue = [[2.2306]\n[120.8072]\n[3699.5613]]"] ;
64 -> 92 ;
93 [label="wr_size <= 160.0\nmse = 1655781.8434\nsamples = 66\nvalue = [[2.5545]\n[151.0606]\n[2901.9909]]"] ;
92 -> 93 ;
94 [label="wr_stride <= 96.0\nmse = 1066736.6878\nsamples = 51\nvalue = [[1.4965]\n[192.0196]\n[2106.29]]"] ;
93 -> 94 ;
95 [label="wr_size <= 40.0\nmse = 329408.122\nsamples = 30\nvalue = [[2.1183]\n[309.3333]\n[957.9863]]"] ;
94 -> 95 ;
96 [label="mse = 217330.1143\nsamples = 21\nvalue = [[1.3438]\n[420.5238]\n[595.7614]]"] ;
95 -> 96 ;
97 [label="mse = 218702.8717\nsamples = 9\nvalue = [[3.9256]\n[49.8889]\n[1803.1778]]"] ;
95 -> 97 ;
98 [label="wr_ratio <= 37.5\nmse = 579233.8543\nsamples = 21\nvalue = [[0.6081]\n[24.4286]\n[3746.7238]]"] ;
94 -> 98 ;
99 [label="mse = 856591.5821\nsamples = 6\nvalue = [[0.66]\n[14.0]\n[4927.96]]"] ;
98 -> 99 ;
100 [label="mse = 207810.9268\nsamples = 15\nvalue = [[0.5873]\n[28.6]\n[3274.2293]]"] ;
98 -> 100 ;
101 [label="wr_stride <= 96.0\nmse = 492906.1413\nsamples = 15\nvalue = [[6.152]\n[11.8]\n[5607.374]]"] ;
93 -> 101 ;
102 [label="wr_ratio <= 37.5\nmse = 362287.1267\nsamples = 10\nvalue = [[6.623]\n[13.6]\n[5019.518]]"] ;
101 -> 102 ;
103 [label="mse = 11368.2982\nsamples = 3\nvalue = [[5.6133]\n[9.3333]\n[6105.9067]]"] ;
102 -> 103 ;
104 [label="mse = 271811.6126\nsamples = 7\nvalue = [[7.0557]\n[15.4286]\n[4553.9229]]"] ;
102 -> 104 ;
105 [label="wr_ratio <= 37.5\nmse = 62987.8933\nsamples = 5\nvalue = [[5.21]\n[8.2]\n[6783.086]]"] ;
101 -> 105 ;
106 [label="mse = 24977.2909\nsamples = 2\nvalue = [[4.7]\n[6.0]\n[7120.785]]"] ;
105 -> 106 ;
107 [label="mse = 46089.1413\nsamples = 3\nvalue = [[5.55]\n[9.6667]\n[6557.9533]]"] ;
105 -> 107 ;
108 [label="wr_size <= 160.0\nmse = 251147.9508\nsamples = 17\nvalue = [[0.9729]\n[3.3529]\n[6796.0112]]"] ;
92 -> 108 ;
109 [label="wr_ratio <= 62.5\nmse = 190951.2605\nsamples = 14\nvalue = [[0.3564]\n[3.5]\n[6570.8071]]"] ;
108 -> 109 ;
110 [label="wr_size <= 40.0\nmse = 126070.0518\nsamples = 6\nvalue = [[0.3783]\n[3.8333]\n[7020.1183]]"] ;
109 -> 110 ;
111 [label="mse = 134300.3515\nsamples = 4\nvalue = [[0.095]\n[4.5]\n[7249.925]]"] ;
110 -> 111 ;
112 [label="mse = 3986.1949\nsamples = 2\nvalue = [[0.945]\n[2.5]\n[6560.505]]"] ;
110 -> 112 ;
113 [label="wr_ratio <= 87.5\nmse = 151289.3794\nsamples = 8\nvalue = [[0.34]\n[3.25]\n[6233.8237]]"] ;
109 -> 113 ;
114 [label="mse = 211485.2896\nsamples = 4\nvalue = [[0.3575]\n[4.25]\n[5940.6725]]"] ;
113 -> 114 ;
115 [label="mse = 33801.0321\nsamples = 4\nvalue = [[0.3225]\n[2.25]\n[6526.975]]"] ;
113 -> 115 ;
116 [label="wr_ratio <= 50.0\nmse = 85002.5976\nsamples = 3\nvalue = [[3.85]\n[2.6667]\n[7846.9633]]"] ;
108 -> 116 ;
117 [label="mse = 0.0\nsamples = 1\nvalue = [[3.95]\n[3.0]\n[8465.43]]"] ;
116 -> 117 ;
118 [label="wr_ratio <= 87.5\nmse = 31878.6117\nsamples = 2\nvalue = [[3.8]\n[2.5]\n[7537.73]]"] ;
116 -> 118 ;
119 [label="mse = 0.0\nsamples = 1\nvalue = [[3.95]\n[3.0]\n[7228.48]]"] ;
118 -> 119 ;
120 [label="mse = 0.0\nsamples = 1\nvalue = [[3.65]\n[2.0]\n[7846.98]]"] ;
118 -> 120 ;
}