digraph Tree {
node [shape=box] ;
0 [label="wr_ratio <= 12.5\nmse = 24.5863\nsamples = 418\nvalue = 3.4237"] ;
1 [label="wr_size <= 10.0\nmse = 37.6638\nsamples = 81\nvalue = 11.2737"] ;
0 -> 1 [labeldistance=2.5, labelangle=45, headlabel="True"] ;
2 [label="wr_size <= 2.5\nmse = 10.7536\nsamples = 32\nvalue = 4.64"] ;
1 -> 2 ;
3 [label="wr_stride <= 0.5\nmse = 3.4596\nsamples = 15\nvalue = 2.3373"] ;
2 -> 3 ;
4 [label="wr_rnd <= 50.0\nmse = 7.915\nsamples = 5\nvalue = 3.616"] ;
3 -> 4 ;
5 [label="q_dep <= 8.5\nmse = 6.4009\nsamples = 2\nvalue = 6.45"] ;
4 -> 5 ;
6 [label="mse = 0.0\nsamples = 1\nvalue = 3.92"] ;
5 -> 6 ;
7 [label="mse = 0.0\nsamples = 1\nvalue = 8.98"] ;
5 -> 7 ;
8 [label="q_dep <= 10.0\nmse = 0.0004\nsamples = 3\nvalue = 1.7267"] ;
4 -> 8 ;
9 [label="mse = 0.0\nsamples = 1\nvalue = 1.7"] ;
8 -> 9 ;
10 [label="q_dep <= 40.0\nmse = 0.0001\nsamples = 2\nvalue = 1.74"] ;
8 -> 10 ;
11 [label="mse = 0.0\nsamples = 1\nvalue = 1.73"] ;
10 -> 11 ;
12 [label="mse = 0.0\nsamples = 1\nvalue = 1.75"] ;
10 -> 12 ;
13 [label="q_dep <= 2.5\nmse = 0.0057\nsamples = 10\nvalue = 1.698"] ;
3 -> 13 ;
14 [label="wr_stride <= 192.0\nmse = 0.0003\nsamples = 3\nvalue = 1.5967"] ;
13 -> 14 ;
15 [label="wr_stride <= 96.0\nmse = 0.0002\nsamples = 2\nvalue = 1.605"] ;
14 -> 15 ;
16 [label="mse = 0.0\nsamples = 1\nvalue = 1.59"] ;
15 -> 16 ;
17 [label="mse = 0.0\nsamples = 1\nvalue = 1.62"] ;
15 -> 17 ;
18 [label="mse = 0.0\nsamples = 1\nvalue = 1.58"] ;
14 -> 18 ;
19 [label="q_dep <= 34.0\nmse = 0.0017\nsamples = 7\nvalue = 1.7414"] ;
13 -> 19 ;
20 [label="wr_stride <= 192.0\nmse = 0.0005\nsamples = 4\nvalue = 1.71"] ;
19 -> 20 ;
21 [label="wr_stride <= 96.0\nmse = 0.0006\nsamples = 3\nvalue = 1.7033"] ;
20 -> 21 ;
22 [label="mse = 0.0\nsamples = 2\nvalue = 1.72"] ;
21 -> 22 ;
23 [label="mse = 0.0\nsamples = 1\nvalue = 1.67"] ;
21 -> 23 ;
24 [label="mse = -0.0\nsamples = 1\nvalue = 1.73"] ;
20 -> 24 ;
25 [label="wr_stride <= 96.0\nmse = 0.0002\nsamples = 3\nvalue = 1.7833"] ;
19 -> 25 ;
26 [label="mse = 0.0\nsamples = 1\nvalue = 1.77"] ;
25 -> 26 ;
27 [label="wr_stride <= 192.0\nmse = 0.0001\nsamples = 2\nvalue = 1.79"] ;
25 -> 27 ;
28 [label="mse = 0.0\nsamples = 1\nvalue = 1.8"] ;
27 -> 28 ;
29 [label="mse = 0.0\nsamples = 1\nvalue = 1.78"] ;
27 -> 29 ;
30 [label="wr_stride <= 0.5\nmse = 8.383\nsamples = 17\nvalue = 6.6718"] ;
2 -> 30 ;
31 [label="wr_rnd <= 50.0\nmse = 16.7892\nsamples = 6\nvalue = 8.7833"] ;
30 -> 31 ;
32 [label="q_dep <= 34.0\nmse = 13.8893\nsamples = 3\nvalue = 11.92"] ;
31 -> 32 ;
33 [label="q_dep <= 2.5\nmse = 0.3192\nsamples = 2\nvalue = 9.305"] ;
32 -> 33 ;
34 [label="mse = 0.0\nsamples = 1\nvalue = 8.74"] ;
33 -> 34 ;
35 [label="mse = 0.0\nsamples = 1\nvalue = 9.87"] ;
33 -> 35 ;
36 [label="mse = 0.0\nsamples = 1\nvalue = 17.15"] ;
32 -> 36 ;
37 [label="q_dep <= 10.0\nmse = 0.0118\nsamples = 3\nvalue = 5.6467"] ;
31 -> 37 ;
38 [label="mse = 0.0\nsamples = 1\nvalue = 5.5"] ;
37 -> 38 ;
39 [label="q_dep <= 40.0\nmse = 0.0016\nsamples = 2\nvalue = 5.72"] ;
37 -> 39 ;
40 [label="mse = 0.0\nsamples = 1\nvalue = 5.68"] ;
39 -> 40 ;
41 [label="mse = 0.0\nsamples = 1\nvalue = 5.76"] ;
39 -> 41 ;
42 [label="q_dep <= 10.0\nmse = 0.0392\nsamples = 11\nvalue = 5.52"] ;
30 -> 42 ;
43 [label="q_dep <= 2.5\nmse = 0.0275\nsamples = 6\nvalue = 5.39"] ;
42 -> 43 ;
44 [label="wr_stride <= 96.0\nmse = 0.0016\nsamples = 2\nvalue = 5.22"] ;
43 -> 44 ;
45 [label="mse = 0.0\nsamples = 1\nvalue = 5.18"] ;
44 -> 45 ;
46 [label="mse = 0.0\nsamples = 1\nvalue = 5.26"] ;
44 -> 46 ;
47 [label="wr_stride <= 32.5\nmse = 0.0187\nsamples = 4\nvalue = 5.475"] ;
43 -> 47 ;
48 [label="mse = 0.0\nsamples = 1\nvalue = 5.25"] ;
47 -> 48 ;
49 [label="wr_stride <= 192.0\nmse = 0.0025\nsamples = 3\nvalue = 5.55"] ;
47 -> 49 ;
50 [label="mse = 0.0\nsamples = 2\nvalue = 5.515"] ;
49 -> 50 ;
51 [label="mse = -0.0\nsamples = 1\nvalue = 5.62"] ;
49 -> 51 ;
52 [label="wr_stride <= 32.5\nmse = 0.0087\nsamples = 5\nvalue = 5.676"] ;
42 -> 52 ;
53 [label="mse = 0.0\nsamples = 1\nvalue = 5.52"] ;
52 -> 53 ;
54 [label="q_dep <= 40.0\nmse = 0.0033\nsamples = 4\nvalue = 5.715"] ;
52 -> 54 ;
55 [label="wr_stride <= 160.0\nmse = 0.0001\nsamples = 2\nvalue = 5.66"] ;
54 -> 55 ;
56 [label="mse = 0.0\nsamples = 1\nvalue = 5.67"] ;
55 -> 56 ;
57 [label="mse = -0.0\nsamples = 1\nvalue = 5.65"] ;
55 -> 57 ;
58 [label="wr_stride <= 96.0\nmse = 0.0004\nsamples = 2\nvalue = 5.77"] ;
54 -> 58 ;
59 [label="mse = 0.0\nsamples = 1\nvalue = 5.75"] ;
58 -> 59 ;
60 [label="mse = 0.0\nsamples = 1\nvalue = 5.79"] ;
58 -> 60 ;
61 [label="wr_size <= 40.0\nmse = 7.731\nsamples = 49\nvalue = 15.6059"] ;
1 -> 61 ;
62 [label="wr_stride <= 0.5\nmse = 4.6411\nsamples = 16\nvalue = 12.515"] ;
61 -> 62 ;
63 [label="wr_rnd <= 50.0\nmse = 5.4726\nsamples = 6\nvalue = 14.5033"] ;
62 -> 63 ;
64 [label="q_dep <= 10.0\nmse = 3.155\nsamples = 4\nvalue = 15.8"] ;
63 -> 64 ;
65 [label="q_dep <= 2.5\nmse = 0.7921\nsamples = 2\nvalue = 14.15"] ;
64 -> 65 ;
66 [label="mse = 0.0\nsamples = 1\nvalue = 13.26"] ;
65 -> 66 ;
67 [label="mse = 0.0\nsamples = 1\nvalue = 15.04"] ;
65 -> 67 ;
68 [label="q_dep <= 40.0\nmse = 0.0729\nsamples = 2\nvalue = 17.45"] ;
64 -> 68 ;
69 [label="mse = 0.0\nsamples = 1\nvalue = 17.18"] ;
68 -> 69 ;
70 [label="mse = -0.0\nsamples = 1\nvalue = 17.72"] ;
68 -> 70 ;
71 [label="q_dep <= 40.0\nmse = 0.0196\nsamples = 2\nvalue = 11.91"] ;
63 -> 71 ;
72 [label="mse = 0.0\nsamples = 1\nvalue = 11.77"] ;
71 -> 72 ;
73 [label="mse = 0.0\nsamples = 1\nvalue = 12.05"] ;
71 -> 73 ;
74 [label="q_dep <= 2.5\nmse = 0.3469\nsamples = 10\nvalue = 11.322"] ;
62 -> 74 ;
75 [label="wr_stride <= 32.5\nmse = 0.0068\nsamples = 3\nvalue = 10.4667"] ;
74 -> 75 ;
76 [label="mse = 0.0\nsamples = 1\nvalue = 10.35"] ;
75 -> 76 ;
77 [label="wr_stride <= 96.0\nmse = 0.0\nsamples = 2\nvalue = 10.525"] ;
75 -> 77 ;
78 [label="mse = 0.0\nsamples = 1\nvalue = 10.53"] ;
77 -> 78 ;
79 [label="mse = 0.0\nsamples = 1\nvalue = 10.52"] ;
77 -> 79 ;
80 [label="q_dep <= 10.0\nmse = 0.0447\nsamples = 7\nvalue = 11.6886"] ;
74 -> 80 ;
81 [label="wr_stride <= 96.0\nmse = 0.0182\nsamples = 2\nvalue = 11.435"] ;
80 -> 81 ;
82 [label="mse = 0.0\nsamples = 1\nvalue = 11.3"] ;
81 -> 82 ;
83 [label="mse = 0.0\nsamples = 1\nvalue = 11.57"] ;
81 -> 83 ;
84 [label="wr_stride <= 96.0\nmse = 0.0193\nsamples = 5\nvalue = 11.79"] ;
80 -> 84 ;
85 [label="wr_stride <= 32.5\nmse = 0.0055\nsamples = 3\nvalue = 11.6867"] ;
84 -> 85 ;
86 [label="mse = 0.003\nsamples = 2\nvalue = 11.645"] ;
85 -> 86 ;
87 [label="mse = 0.0\nsamples = 1\nvalue = 11.77"] ;
85 -> 87 ;
88 [label="wr_stride <= 192.0\nmse = 0.0\nsamples = 2\nvalue = 11.945"] ;
84 -> 88 ;
89 [label="mse = 0.0\nsamples = 1\nvalue = 11.94"] ;
88 -> 89 ;
90 [label="mse = -0.0\nsamples = 1\nvalue = 11.95"] ;
88 -> 90 ;
91 [label="wr_size <= 160.0\nmse = 2.3511\nsamples = 33\nvalue = 17.1045"] ;
61 -> 91 ;
92 [label="q_dep <= 40.0\nmse = 0.4136\nsamples = 15\nvalue = 16.074"] ;
91 -> 92 ;
93 [label="q_dep <= 2.5\nmse = 0.1892\nsamples = 11\nvalue = 15.7582"] ;
92 -> 93 ;
94 [label="wr_stride <= 32.0\nmse = 0.1414\nsamples = 4\nvalue = 15.3175"] ;
93 -> 94 ;
95 [label="mse = 0.0\nsamples = 1\nvalue = 15.95"] ;
94 -> 95 ;
96 [label="wr_stride <= 96.0\nmse = 0.0107\nsamples = 3\nvalue = 15.1067"] ;
94 -> 96 ;
97 [label="mse = 0.0\nsamples = 1\nvalue = 15.01"] ;
96 -> 97 ;
98 [label="mse = 0.009\nsamples = 2\nvalue = 15.155"] ;
96 -> 98 ;
99 [label="q_dep <= 10.0\nmse = 0.0421\nsamples = 7\nvalue = 16.01"] ;
93 -> 99 ;
100 [label="wr_stride <= 192.0\nmse = 0.0035\nsamples = 3\nvalue = 15.78"] ;
99 -> 100 ;
101 [label="mse = 0.0004\nsamples = 2\nvalue = 15.82"] ;
100 -> 101 ;
102 [label="mse = -0.0\nsamples = 1\nvalue = 15.7"] ;
100 -> 102 ;
103 [label="wr_stride <= 192.0\nmse = 0.0017\nsamples = 4\nvalue = 16.1825"] ;
99 -> 103 ;
104 [label="mse = 0.0002\nsamples = 3\nvalue = 16.16"] ;
103 -> 104 ;
105 [label="mse = 0.0\nsamples = 1\nvalue = 16.25"] ;
103 -> 105 ;
106 [label="wr_stride <= 0.5\nmse = 0.0022\nsamples = 4\nvalue = 16.9425"] ;
92 -> 106 ;
107 [label="mse = 0.0\nsamples = 1\nvalue = 17.02"] ;
106 -> 107 ;
108 [label="wr_stride <= 160.0\nmse = 0.0003\nsamples = 3\nvalue = 16.9167"] ;
106 -> 108 ;
109 [label="wr_stride <= 32.5\nmse = 0.0\nsamples = 2\nvalue = 16.905"] ;
108 -> 109 ;
110 [label="mse = 0.0\nsamples = 1\nvalue = 16.9"] ;
109 -> 110 ;
111 [label="mse = -0.0\nsamples = 1\nvalue = 16.91"] ;
109 -> 111 ;
112 [label="mse = 0.0\nsamples = 1\nvalue = 16.94"] ;
108 -> 112 ;
113 [label="q_dep <= 40.0\nmse = 2.3431\nsamples = 18\nvalue = 17.9633"] ;
91 -> 113 ;
114 [label="q_dep <= 10.0\nmse = 0.5025\nsamples = 14\nvalue = 17.2171"] ;
113 -> 114 ;
115 [label="q_dep <= 2.5\nmse = 0.1598\nsamples = 9\nvalue = 16.7489"] ;
114 -> 115 ;
116 [label="wr_stride <= 0.5\nmse = 0.0117\nsamples = 5\nvalue = 16.408"] ;
115 -> 116 ;
117 [label="mse = 0.009\nsamples = 2\nvalue = 16.495"] ;
116 -> 117 ;
118 [label="mse = 0.005\nsamples = 3\nvalue = 16.35"] ;
116 -> 118 ;
119 [label="wr_stride <= 0.5\nmse = 0.0181\nsamples = 4\nvalue = 17.175"] ;
115 -> 119 ;
120 [label="mse = 0.0\nsamples = 1\nvalue = 17.4"] ;
119 -> 120 ;
121 [label="mse = 0.0017\nsamples = 3\nvalue = 17.1"] ;
119 -> 121 ;
122 [label="wr_stride <= 0.5\nmse = 0.0144\nsamples = 5\nvalue = 18.06"] ;
114 -> 122 ;
123 [label="mse = 0.0\nsamples = 1\nvalue = 18.3"] ;
122 -> 123 ;
124 [label="mse = 0.0\nsamples = 4\nvalue = 18.0"] ;
122 -> 124 ;
125 [label="wr_stride <= 0.5\nmse = 0.0156\nsamples = 4\nvalue = 20.575"] ;
113 -> 125 ;
126 [label="wr_rnd <= 50.0\nmse = 0.0056\nsamples = 2\nvalue = 20.675"] ;
125 -> 126 ;
127 [label="mse = 0.0\nsamples = 1\nvalue = 20.75"] ;
126 -> 127 ;
128 [label="mse = 0.0\nsamples = 1\nvalue = 20.6"] ;
126 -> 128 ;
129 [label="wr_stride <= 64.5\nmse = 0.0056\nsamples = 2\nvalue = 20.475"] ;
125 -> 129 ;
130 [label="mse = 0.0\nsamples = 1\nvalue = 20.4"] ;
129 -> 130 ;
131 [label="mse = -0.0\nsamples = 1\nvalue = 20.55"] ;
129 -> 131 ;
132 [label="wr_size <= 40.0\nmse = 3.0715\nsamples = 337\nvalue = 1.5369"] ;
0 -> 132 [labeldistance=2.5, labelangle=-45, headlabel="False"] ;
133 [label="wr_stride <= 32.5\nmse = 0.8928\nsamples = 197\nvalue = 0.6382"] ;
132 -> 133 ;
134 [label="wr_rnd <= 50.0\nmse = 1.4205\nsamples = 99\nvalue = 1.0291"] ;
133 -> 134 ;
135 [label="wr_size <= 10.0\nmse = 1.4075\nsamples = 66\nvalue = 1.5192"] ;
134 -> 135 ;
136 [label="wr_size <= 2.5\nmse = 0.6744\nsamples = 45\nvalue = 1.0018"] ;
135 -> 136 ;
137 [label="q_dep <= 40.0\nmse = 0.2783\nsamples = 23\nvalue = 0.5122"] ;
136 -> 137 ;
138 [label="wr_stride <= 0.5\nmse = 0.0241\nsamples = 18\nvalue = 0.3711"] ;
137 -> 138 ;
139 [label="mse = 0.0041\nsamples = 8\nvalue = 0.4775"] ;
138 -> 139 ;
140 [label="mse = 0.0239\nsamples = 10\nvalue = 0.286"] ;
138 -> 140 ;
141 [label="wr_ratio <= 87.5\nmse = 0.8636\nsamples = 5\nvalue = 1.02"] ;
137 -> 141 ;
142 [label="mse = 0.0669\nsamples = 4\nvalue = 0.57"] ;
141 -> 142 ;
143 [label="mse = 0.0\nsamples = 1\nvalue = 2.82"] ;
141 -> 143 ;
144 [label="wr_stride <= 0.5\nmse = 0.5758\nsamples = 22\nvalue = 1.5136"] ;
136 -> 144 ;
145 [label="q_dep <= 40.0\nmse = 0.2754\nsamples = 11\nvalue = 2.0145"] ;
144 -> 145 ;
146 [label="mse = 0.0945\nsamples = 8\nvalue = 1.7775"] ;
145 -> 146 ;
147 [label="mse = 0.2083\nsamples = 3\nvalue = 2.6467"] ;
145 -> 147 ;
148 [label="wr_ratio <= 37.5\nmse = 0.3745\nsamples = 11\nvalue = 1.0127"] ;
144 -> 148 ;
149 [label="mse = 0.0038\nsamples = 3\nvalue = 1.99"] ;
148 -> 149 ;
150 [label="mse = 0.0211\nsamples = 8\nvalue = 0.6462"] ;
148 -> 150 ;
151 [label="wr_stride <= 0.5\nmse = 1.1752\nsamples = 21\nvalue = 2.6281"] ;
135 -> 151 ;
152 [label="q_dep <= 2.5\nmse = 0.5256\nsamples = 9\nvalue = 3.6933"] ;
151 -> 152 ;
153 [label="wr_ratio <= 62.5\nmse = 0.3672\nsamples = 4\nvalue = 4.0375"] ;
152 -> 153 ;
154 [label="mse = 0.09\nsamples = 2\nvalue = 3.47"] ;
153 -> 154 ;
155 [label="mse = 0.0002\nsamples = 2\nvalue = 4.605"] ;
153 -> 155 ;
156 [label="wr_ratio <= 75.0\nmse = 0.4818\nsamples = 5\nvalue = 3.418"] ;
152 -> 156 ;
157 [label="mse = 0.0546\nsamples = 3\nvalue = 3.96"] ;
156 -> 157 ;
158 [label="mse = 0.021\nsamples = 2\nvalue = 2.605"] ;
156 -> 158 ;
159 [label="wr_ratio <= 62.5\nmse = 0.173\nsamples = 12\nvalue = 1.8292"] ;
151 -> 159 ;
160 [label="q_dep <= 10.0\nmse = 0.1047\nsamples = 6\nvalue = 2.1217"] ;
159 -> 160 ;
161 [label="mse = 0.0993\nsamples = 4\nvalue = 2.0125"] ;
160 -> 161 ;
162 [label="mse = 0.0441\nsamples = 2\nvalue = 2.34"] ;
160 -> 162 ;
163 [label="wr_ratio <= 87.5\nmse = 0.0701\nsamples = 6\nvalue = 1.5367"] ;
159 -> 163 ;
164 [label="mse = 0.0529\nsamples = 3\nvalue = 1.74"] ;
163 -> 164 ;
165 [label="mse = 0.0046\nsamples = 3\nvalue = 1.3333"] ;
163 -> 165 ;
166 [label="wr_size <= 10.0\nmse = 0.0049\nsamples = 33\nvalue = 0.0488"] ;
134 -> 166 ;
167 [label="q_dep <= 40.0\nmse = 0.0005\nsamples = 23\nvalue = 0.0209"] ;
166 -> 167 ;
168 [label="wr_size <= 2.5\nmse = 0.0001\nsamples = 16\nvalue = 0.01"] ;
167 -> 168 ;
169 [label="wr_ratio <= 37.5\nmse = 0.0\nsamples = 7\nvalue = 0.0029"] ;
168 -> 169 ;
170 [label="mse = 0.0\nsamples = 1\nvalue = 0.01"] ;
169 -> 170 ;
171 [label="mse = 0.0\nsamples = 6\nvalue = 0.0017"] ;
169 -> 171 ;
172 [label="q_dep <= 10.0\nmse = 0.0\nsamples = 9\nvalue = 0.0156"] ;
168 -> 172 ;
173 [label="mse = 0.0\nsamples = 6\nvalue = 0.0117"] ;
172 -> 173 ;
174 [label="mse = 0.0\nsamples = 3\nvalue = 0.0233"] ;
172 -> 174 ;
175 [label="wr_size <= 2.5\nmse = 0.0007\nsamples = 7\nvalue = 0.0457"] ;
167 -> 175 ;
176 [label="wr_ratio <= 87.5\nmse = 0.0\nsamples = 3\nvalue = 0.0167"] ;
175 -> 176 ;
177 [label="mse = 0.0\nsamples = 2\nvalue = 0.02"] ;
176 -> 177 ;
178 [label="mse = -0.0\nsamples = 1\nvalue = 0.01"] ;
176 -> 178 ;
179 [label="wr_ratio <= 37.5\nmse = 0.0001\nsamples = 4\nvalue = 0.0675"] ;
175 -> 179 ;
180 [label="mse = 0.0\nsamples = 1\nvalue = 0.08"] ;
179 -> 180 ;
181 [label="mse = 0.0\nsamples = 3\nvalue = 0.0633"] ;
179 -> 181 ;
182 [label="q_dep <= 40.0\nmse = 0.009\nsamples = 10\nvalue = 0.113"] ;
166 -> 182 ;
183 [label="q_dep <= 10.0\nmse = 0.0008\nsamples = 7\nvalue = 0.0543"] ;
182 -> 183 ;
184 [label="wr_ratio <= 87.5\nmse = 0.0001\nsamples = 4\nvalue = 0.0325"] ;
183 -> 184 ;
185 [label="mse = 0.0\nsamples = 2\nvalue = 0.04"] ;
184 -> 185 ;
186 [label="mse = 0.0\nsamples = 2\nvalue = 0.025"] ;
184 -> 186 ;
187 [label="wr_ratio <= 62.5\nmse = 0.0004\nsamples = 3\nvalue = 0.0833"] ;
183 -> 187 ;
188 [label="mse = 0.0\nsamples = 1\nvalue = 0.11"] ;
187 -> 188 ;
189 [label="mse = 0.0\nsamples = 2\nvalue = 0.07"] ;
187 -> 189 ;
190 [label="wr_ratio <= 62.5\nmse = 0.0013\nsamples = 3\nvalue = 0.25"] ;
182 -> 190 ;
191 [label="mse = 0.0\nsamples = 1\nvalue = 0.22"] ;
190 -> 191 ;
192 [label="wr_ratio <= 87.5\nmse = 0.0012\nsamples = 2\nvalue = 0.265"] ;
190 -> 192 ;
193 [label="mse = 0.0\nsamples = 1\nvalue = 0.3"] ;
192 -> 193 ;
194 [label="mse = -0.0\nsamples = 1\nvalue = 0.23"] ;
192 -> 194 ;
195 [label="wr_size <= 10.0\nmse = 0.0495\nsamples = 98\nvalue = 0.2434"] ;
133 -> 195 ;
196 [label="wr_size <= 2.5\nmse = 0.0055\nsamples = 64\nvalue = 0.1092"] ;
195 -> 196 ;
197 [label="wr_stride <= 192.0\nmse = 0.0002\nsamples = 29\nvalue = 0.0414"] ;
196 -> 197 ;
198 [label="q_dep <= 40.0\nmse = 0.0\nsamples = 18\nvalue = 0.0522"] ;
197 -> 198 ;
199 [label="wr_ratio <= 37.5\nmse = 0.0\nsamples = 16\nvalue = 0.0506"] ;
198 -> 199 ;
200 [label="mse = 0.0\nsamples = 2\nvalue = 0.055"] ;
199 -> 200 ;
201 [label="mse = -0.0\nsamples = 14\nvalue = 0.05"] ;
199 -> 201 ;
202 [label="wr_stride <= 96.0\nmse = 0.0\nsamples = 2\nvalue = 0.065"] ;
198 -> 202 ;
203 [label="mse = 0.0\nsamples = 1\nvalue = 0.06"] ;
202 -> 203 ;
204 [label="mse = 0.0\nsamples = 1\nvalue = 0.07"] ;
202 -> 204 ;
205 [label="wr_ratio <= 37.5\nmse = 0.0001\nsamples = 11\nvalue = 0.0236"] ;
197 -> 205 ;
206 [label="q_dep <= 40.0\nmse = 0.0\nsamples = 3\nvalue = 0.0167"] ;
205 -> 206 ;
207 [label="mse = 0.0\nsamples = 2\nvalue = 0.015"] ;
206 -> 207 ;
208 [label="mse = 0.0\nsamples = 1\nvalue = 0.02"] ;
206 -> 208 ;
209 [label="q_dep <= 10.0\nmse = 0.0\nsamples = 8\nvalue = 0.0262"] ;
205 -> 209 ;
210 [label="mse = 0.0\nsamples = 5\nvalue = 0.022"] ;
209 -> 210 ;
211 [label="mse = 0.0\nsamples = 3\nvalue = 0.0333"] ;
209 -> 211 ;
212 [label="wr_stride <= 192.0\nmse = 0.0028\nsamples = 35\nvalue = 0.1654"] ;
196 -> 212 ;
213 [label="wr_stride <= 96.0\nmse = 0.0018\nsamples = 24\nvalue = 0.1913"] ;
212 -> 213 ;
214 [label="q_dep <= 40.0\nmse = 0.0007\nsamples = 11\nvalue = 0.2118"] ;
213 -> 214 ;
215 [label="mse = 0.0004\nsamples = 8\nvalue = 0.2"] ;
214 -> 215 ;
216 [label="mse = 0.0\nsamples = 3\nvalue = 0.2433"] ;
214 -> 216 ;
217 [label="wr_ratio <= 37.5\nmse = 0.0021\nsamples = 13\nvalue = 0.1738"] ;
213 -> 217 ;
218 [label="mse = 0.0002\nsamples = 4\nvalue = 0.1125"] ;
217 -> 218 ;
219 [label="mse = 0.0005\nsamples = 9\nvalue = 0.2011"] ;
217 -> 219 ;
220 [label="q_dep <= 40.0\nmse = 0.0006\nsamples = 11\nvalue = 0.1091"] ;
212 -> 220 ;
221 [label="wr_ratio <= 37.5\nmse = 0.0002\nsamples = 8\nvalue = 0.0975"] ;
220 -> 221 ;
222 [label="mse = 0.0\nsamples = 1\nvalue = 0.06"] ;
221 -> 222 ;
223 [label="mse = 0.0\nsamples = 7\nvalue = 0.1029"] ;
221 -> 223 ;
224 [label="wr_ratio <= 62.5\nmse = 0.0001\nsamples = 3\nvalue = 0.14"] ;
220 -> 224 ;
225 [label="mse = 0.0\nsamples = 1\nvalue = 0.13"] ;
224 -> 225 ;
226 [label="mse = 0.0\nsamples = 2\nvalue = 0.145"] ;
224 -> 226 ;
227 [label="wr_stride <= 96.0\nmse = 0.0347\nsamples = 34\nvalue = 0.4959"] ;
195 -> 227 ;
228 [label="q_dep <= 10.0\nmse = 0.0118\nsamples = 10\nvalue = 0.689"] ;
227 -> 228 ;
229 [label="wr_ratio <= 87.5\nmse = 0.0044\nsamples = 4\nvalue = 0.615"] ;
228 -> 229 ;
230 [label="q_dep <= 2.5\nmse = 0.0\nsamples = 2\nvalue = 0.655"] ;
229 -> 230 ;
231 [label="mse = 0.0\nsamples = 1\nvalue = 0.65"] ;
230 -> 231 ;
232 [label="mse = 0.0\nsamples = 1\nvalue = 0.66"] ;
230 -> 232 ;
233 [label="q_dep <= 2.5\nmse = 0.0056\nsamples = 2\nvalue = 0.575"] ;
229 -> 233 ;
234 [label="mse = 0.0\nsamples = 1\nvalue = 0.65"] ;
233 -> 234 ;
235 [label="mse = 0.0\nsamples = 1\nvalue = 0.5"] ;
233 -> 235 ;
236 [label="q_dep <= 40.0\nmse = 0.0106\nsamples = 6\nvalue = 0.7383"] ;
228 -> 236 ;
237 [label="wr_ratio <= 87.5\nmse = 0.0098\nsamples = 4\nvalue = 0.7075"] ;
236 -> 237 ;
238 [label="mse = 0.0041\nsamples = 3\nvalue = 0.66"] ;
237 -> 238 ;
239 [label="mse = 0.0\nsamples = 1\nvalue = 0.85"] ;
237 -> 239 ;
240 [label="wr_ratio <= 75.0\nmse = 0.0064\nsamples = 2\nvalue = 0.8"] ;
236 -> 240 ;
241 [label="mse = 0.0\nsamples = 1\nvalue = 0.88"] ;
240 -> 241 ;
242 [label="mse = -0.0\nsamples = 1\nvalue = 0.72"] ;
240 -> 242 ;
243 [label="q_dep <= 10.0\nmse = 0.0223\nsamples = 24\nvalue = 0.4154"] ;
227 -> 243 ;
244 [label="wr_ratio <= 62.5\nmse = 0.0052\nsamples = 12\nvalue = 0.325"] ;
243 -> 244 ;
245 [label="wr_stride <= 192.0\nmse = 0.0055\nsamples = 4\nvalue = 0.2425"] ;
244 -> 245 ;
246 [label="mse = 0.0\nsamples = 1\nvalue = 0.37"] ;
245 -> 246 ;
247 [label="mse = 0.0001\nsamples = 3\nvalue = 0.2"] ;
245 -> 247 ;
248 [label="q_dep <= 2.5\nmse = 0.0\nsamples = 8\nvalue = 0.3662"] ;
244 -> 248 ;
249 [label="mse = 0.0\nsamples = 4\nvalue = 0.3625"] ;
248 -> 249 ;
250 [label="mse = 0.0\nsamples = 4\nvalue = 0.37"] ;
248 -> 250 ;
251 [label="q_dep <= 40.0\nmse = 0.023\nsamples = 12\nvalue = 0.5058"] ;
243 -> 251 ;
252 [label="wr_ratio <= 62.5\nmse = 0.0114\nsamples = 6\nvalue = 0.4517"] ;
251 -> 252 ;
253 [label="mse = 0.021\nsamples = 2\nvalue = 0.545"] ;
252 -> 253 ;
254 [label="mse = 0.0001\nsamples = 4\nvalue = 0.405"] ;
252 -> 254 ;
255 [label="wr_ratio <= 37.5\nmse = 0.0287\nsamples = 6\nvalue = 0.56"] ;
251 -> 255 ;
256 [label="mse = 0.0002\nsamples = 2\nvalue = 0.435"] ;
255 -> 256 ;
257 [label="mse = 0.0312\nsamples = 4\nvalue = 0.6225"] ;
255 -> 257 ;
258 [label="wr_rnd <= 50.0\nmse = 3.402\nsamples = 140\nvalue = 2.8014"] ;
132 -> 258 ;
259 [label="wr_stride <= 32.5\nmse = 3.0463\nsamples = 114\nvalue = 3.2002"] ;
258 -> 259 ;
260 [label="q_dep <= 40.0\nmse = 2.6311\nsamples = 43\nvalue = 4.3458"] ;
259 -> 260 ;
261 [label="wr_ratio <= 62.5\nmse = 1.0861\nsamples = 31\nvalue = 3.7313"] ;
260 -> 261 ;
262 [label="q_dep <= 10.0\nmse = 0.4284\nsamples = 18\nvalue = 3.2311"] ;
261 -> 262 ;
263 [label="wr_size <= 160.0\nmse = 0.0873\nsamples = 12\nvalue = 2.9108"] ;
262 -> 263 ;
264 [label="mse = 0.0508\nsamples = 7\nvalue = 2.7829"] ;
263 -> 264 ;
265 [label="mse = 0.0834\nsamples = 5\nvalue = 3.09"] ;
263 -> 265 ;
266 [label="wr_ratio <= 37.5\nmse = 0.495\nsamples = 6\nvalue = 3.8717"] ;
262 -> 266 ;
267 [label="mse = 0.4668\nsamples = 3\nvalue = 4.3033"] ;
266 -> 267 ;
268 [label="mse = 0.1505\nsamples = 3\nvalue = 3.44"] ;
266 -> 268 ;
269 [label="wr_stride <= 0.5\nmse = 1.1708\nsamples = 13\nvalue = 4.4238"] ;
261 -> 269 ;
270 [label="q_dep <= 10.0\nmse = 0.8342\nsamples = 8\nvalue = 4.9638"] ;
269 -> 270 ;
271 [label="mse = 0.4643\nsamples = 5\nvalue = 4.414"] ;
270 -> 271 ;
272 [label="mse = 0.1075\nsamples = 3\nvalue = 5.88"] ;
270 -> 272 ;
273 [label="q_dep <= 2.5\nmse = 0.4968\nsamples = 5\nvalue = 3.56"] ;
269 -> 273 ;
274 [label="mse = 0.4074\nsamples = 3\nvalue = 3.15"] ;
273 -> 274 ;
275 [label="mse = 0.0006\nsamples = 2\nvalue = 4.175"] ;
273 -> 275 ;
276 [label="wr_size <= 160.0\nmse = 3.1266\nsamples = 12\nvalue = 5.9333"] ;
260 -> 276 ;
277 [label="wr_ratio <= 87.5\nmse = 1.1469\nsamples = 6\nvalue = 4.5183"] ;
276 -> 277 ;
278 [label="wr_ratio <= 37.5\nmse = 1.3308\nsamples = 4\nvalue = 4.22"] ;
277 -> 278 ;
279 [label="mse = 1.809\nsamples = 2\nvalue = 4.855"] ;
278 -> 279 ;
280 [label="mse = 0.0462\nsamples = 2\nvalue = 3.585"] ;
278 -> 280 ;
281 [label="wr_stride <= 0.5\nmse = 0.245\nsamples = 2\nvalue = 5.115"] ;
277 -> 281 ;
282 [label="mse = 0.0\nsamples = 1\nvalue = 5.61"] ;
281 -> 282 ;
283 [label="mse = 0.0\nsamples = 1\nvalue = 4.62"] ;
281 -> 283 ;
284 [label="wr_ratio <= 37.5\nmse = 1.1018\nsamples = 6\nvalue = 7.3483"] ;
276 -> 284 ;
285 [label="wr_stride <= 0.5\nmse = 0.065\nsamples = 2\nvalue = 6.045"] ;
284 -> 285 ;
286 [label="mse = 0.0\nsamples = 1\nvalue = 5.79"] ;
285 -> 286 ;
287 [label="mse = 0.0\nsamples = 1\nvalue = 6.3"] ;
285 -> 287 ;
288 [label="wr_stride <= 0.5\nmse = 0.3463\nsamples = 4\nvalue = 8.0"] ;
284 -> 288 ;
289 [label="mse = 0.0\nsamples = 1\nvalue = 8.9"] ;
288 -> 289 ;
290 [label="mse = 0.1017\nsamples = 3\nvalue = 7.7"] ;
288 -> 290 ;
291 [label="wr_size <= 160.0\nmse = 2.0214\nsamples = 71\nvalue = 2.5063"] ;
259 -> 291 ;
292 [label="wr_stride <= 96.0\nmse = 0.4647\nsamples = 31\nvalue = 1.3535"] ;
291 -> 292 ;
293 [label="q_dep <= 40.0\nmse = 0.6794\nsamples = 8\nvalue = 2.1125"] ;
292 -> 293 ;
294 [label="q_dep <= 8.5\nmse = 0.0359\nsamples = 5\nvalue = 1.736"] ;
293 -> 294 ;
295 [label="mse = 0.0\nsamples = 2\nvalue = 1.615"] ;
294 -> 295 ;
296 [label="mse = 0.0436\nsamples = 3\nvalue = 1.8167"] ;
294 -> 296 ;
297 [label="wr_ratio <= 37.5\nmse = 1.1219\nsamples = 3\nvalue = 2.74"] ;
293 -> 297 ;
298 [label="mse = 0.0\nsamples = 1\nvalue = 1.8"] ;
297 -> 298 ;
299 [label="mse = 1.0201\nsamples = 2\nvalue = 3.21"] ;
297 -> 299 ;
300 [label="q_dep <= 40.0\nmse = 0.12\nsamples = 23\nvalue = 1.0896"] ;
292 -> 300 ;
301 [label="wr_stride <= 192.0\nmse = 0.0374\nsamples = 18\nvalue = 0.9356"] ;
300 -> 301 ;
302 [label="mse = 0.0053\nsamples = 7\nvalue = 1.15"] ;
301 -> 302 ;
303 [label="mse = 0.01\nsamples = 11\nvalue = 0.7991"] ;
301 -> 303 ;
304 [label="wr_ratio <= 37.5\nmse = 0.0242\nsamples = 5\nvalue = 1.644"] ;
300 -> 304 ;
305 [label="mse = 0.0025\nsamples = 2\nvalue = 1.47"] ;
304 -> 305 ;
306 [label="mse = 0.005\nsamples = 3\nvalue = 1.76"] ;
304 -> 306 ;
307 [label="q_dep <= 40.0\nmse = 1.3998\nsamples = 40\nvalue = 3.3997"] ;
291 -> 307 ;
308 [label="q_dep <= 10.0\nmse = 0.2814\nsamples = 31\nvalue = 2.8323"] ;
307 -> 308 ;
309 [label="wr_stride <= 96.0\nmse = 0.2581\nsamples = 22\nvalue = 2.6682"] ;
308 -> 309 ;
310 [label="mse = 0.3829\nsamples = 7\nvalue = 3.05"] ;
309 -> 310 ;
311 [label="mse = 0.1001\nsamples = 15\nvalue = 2.49"] ;
309 -> 311 ;
312 [label="wr_stride <= 96.0\nmse = 0.1117\nsamples = 9\nvalue = 3.2333"] ;
308 -> 312 ;
313 [label="mse = 0.035\nsamples = 3\nvalue = 3.5"] ;
312 -> 313 ;
314 [label="mse = 0.0967\nsamples = 6\nvalue = 3.1"] ;
312 -> 314 ;
315 [label="wr_ratio <= 62.5\nmse = 0.3222\nsamples = 9\nvalue = 5.3544"] ;
307 -> 315 ;
316 [label="wr_ratio <= 37.5\nmse = 0.0908\nsamples = 5\nvalue = 4.948"] ;
315 -> 316 ;
317 [label="mse = 0.0156\nsamples = 3\nvalue = 4.7167"] ;
316 -> 317 ;
318 [label="mse = 0.003\nsamples = 2\nvalue = 5.295"] ;
316 -> 318 ;
319 [label="wr_stride <= 192.0\nmse = 0.1467\nsamples = 4\nvalue = 5.8625"] ;
315 -> 319 ;
320 [label="mse = 0.1006\nsamples = 3\nvalue = 6.0167"] ;
319 -> 320 ;
321 [label="mse = -0.0\nsamples = 1\nvalue = 5.4"] ;
319 -> 321 ;
322 [label="q_dep <= 40.0\nmse = 1.2062\nsamples = 26\nvalue = 1.0527"] ;
258 -> 322 ;
323 [label="wr_size <= 160.0\nmse = 0.228\nsamples = 19\nvalue = 0.6263"] ;
322 -> 323 ;
324 [label="wr_ratio <= 37.5\nmse = 0.0285\nsamples = 11\nvalue = 0.2955"] ;
323 -> 324 ;
325 [label="q_dep <= 10.0\nmse = 0.0211\nsamples = 3\nvalue = 0.5167"] ;
324 -> 325 ;
326 [label="q_dep <= 2.5\nmse = 0.0006\nsamples = 2\nvalue = 0.415"] ;
325 -> 326 ;
327 [label="mse = 0.0\nsamples = 1\nvalue = 0.39"] ;
326 -> 327 ;
328 [label="mse = -0.0\nsamples = 1\nvalue = 0.44"] ;
326 -> 328 ;
329 [label="mse = 0.0\nsamples = 1\nvalue = 0.72"] ;
325 -> 329 ;
330 [label="q_dep <= 10.0\nmse = 0.006\nsamples = 8\nvalue = 0.2125"] ;
324 -> 330 ;
331 [label="wr_ratio <= 87.5\nmse = 0.0018\nsamples = 5\nvalue = 0.16"] ;
330 -> 331 ;
332 [label="mse = 0.0003\nsamples = 3\nvalue = 0.19"] ;
331 -> 332 ;
333 [label="mse = 0.0006\nsamples = 2\nvalue = 0.115"] ;
331 -> 333 ;
334 [label="wr_ratio <= 62.5\nmse = 0.0009\nsamples = 3\nvalue = 0.3"] ;
330 -> 334 ;
335 [label="mse = 0.0\nsamples = 1\nvalue = 0.34"] ;
334 -> 335 ;
336 [label="mse = 0.0001\nsamples = 2\nvalue = 0.28"] ;
334 -> 336 ;
337 [label="q_dep <= 2.5\nmse = 0.145\nsamples = 8\nvalue = 1.0812"] ;
323 -> 337 ;
338 [label="wr_ratio <= 37.5\nmse = 0.0939\nsamples = 3\nvalue = 0.6667"] ;
337 -> 338 ;
339 [label="mse = 0.0\nsamples = 1\nvalue = 1.05"] ;
338 -> 339 ;
340 [label="wr_ratio <= 75.0\nmse = 0.0306\nsamples = 2\nvalue = 0.475"] ;
338 -> 340 ;
341 [label="mse = 0.0\nsamples = 1\nvalue = 0.65"] ;
340 -> 341 ;
342 [label="mse = 0.0\nsamples = 1\nvalue = 0.3"] ;
340 -> 342 ;
343 [label="wr_ratio <= 62.5\nmse = 0.0106\nsamples = 5\nvalue = 1.33"] ;
337 -> 343 ;
344 [label="q_dep <= 10.0\nmse = 0.005\nsamples = 3\nvalue = 1.4"] ;
343 -> 344 ;
345 [label="mse = 0.0\nsamples = 1\nvalue = 1.3"] ;
344 -> 345 ;
346 [label="mse = -0.0\nsamples = 2\nvalue = 1.45"] ;
344 -> 346 ;
347 [label="wr_ratio <= 87.5\nmse = 0.0006\nsamples = 2\nvalue = 1.225"] ;
343 -> 347 ;
348 [label="mse = 0.0\nsamples = 1\nvalue = 1.25"] ;
347 -> 348 ;
349 [label="mse = -0.0\nsamples = 1\nvalue = 1.2"] ;
347 -> 349 ;
350 [label="wr_size <= 160.0\nmse = 2.0283\nsamples = 7\nvalue = 2.21"] ;
322 -> 350 ;
351 [label="wr_ratio <= 37.5\nmse = 0.0044\nsamples = 4\nvalue = 0.98"] ;
350 -> 351 ;
352 [label="mse = 0.0\nsamples = 1\nvalue = 0.87"] ;
351 -> 352 ;
353 [label="wr_ratio <= 87.5\nmse = 0.0004\nsamples = 3\nvalue = 1.0167"] ;
351 -> 353 ;
354 [label="wr_ratio <= 62.5\nmse = 0.0001\nsamples = 2\nvalue = 1.03"] ;
353 -> 354 ;
355 [label="mse = 0.0\nsamples = 1\nvalue = 1.02"] ;
354 -> 355 ;
356 [label="mse = -0.0\nsamples = 1\nvalue = 1.04"] ;
354 -> 356 ;
357 [label="mse = 0.0\nsamples = 1\nvalue = 0.99"] ;
353 -> 357 ;
358 [label="wr_ratio <= 87.5\nmse = 0.02\nsamples = 3\nvalue = 3.85"] ;
350 -> 358 ;
359 [label="mse = 0.0\nsamples = 2\nvalue = 3.95"] ;
358 -> 359 ;
360 [label="mse = -0.0\nsamples = 1\nvalue = 3.65"] ;
358 -> 360 ;
}