digraph Tree {
node [shape=box] ;
0 [label="wr_ratio <= 12.5\nmse = 473072.022\nsamples = 418\nvalue = 269.3086"] ;
1 [label="wr_size <= 10.0\nmse = 1556781.9592\nsamples = 81\nvalue = 1019.0617"] ;
0 -> 1 [labeldistance=2.5, labelangle=45, headlabel="True"] ;
2 [label="wr_stride <= 0.5\nmse = 2110762.9648\nsamples = 32\nvalue = 2024.8125"] ;
1 -> 2 ;
3 [label="wr_rnd <= 50.0\nmse = 4900464.3306\nsamples = 11\nvalue = 2905.8182"] ;
2 -> 3 ;
4 [label="q_dep <= 10.0\nmse = 6267821.76\nsamples = 5\nvalue = 4469.2"] ;
3 -> 4 ;
5 [label="wr_size <= 2.5\nmse = 603256.2222\nsamples = 3\nvalue = 2923.3333"] ;
4 -> 5 ;
6 [label="mse = 0.0\nsamples = 1\nvalue = 4009.0"] ;
5 -> 6 ;
7 [label="q_dep <= 2.5\nmse = 20880.25\nsamples = 2\nvalue = 2380.5"] ;
5 -> 7 ;
8 [label="mse = 0.0\nsamples = 1\nvalue = 2236.0"] ;
7 -> 8 ;
9 [label="mse = 0.0\nsamples = 1\nvalue = 2525.0"] ;
7 -> 9 ;
10 [label="wr_size <= 2.5\nmse = 5803281.0\nsamples = 2\nvalue = 6788.0"] ;
4 -> 10 ;
11 [label="mse = 0.0\nsamples = 1\nvalue = 9197.0"] ;
10 -> 11 ;
12 [label="mse = 0.0\nsamples = 1\nvalue = 4379.0"] ;
10 -> 12 ;
13 [label="wr_size <= 2.5\nmse = 26862.3333\nsamples = 6\nvalue = 1603.0"] ;
3 -> 13 ;
14 [label="q_dep <= 10.0\nmse = 224.2222\nsamples = 3\nvalue = 1765.6667"] ;
13 -> 14 ;
15 [label="mse = 0.0\nsamples = 1\nvalue = 1745.0"] ;
14 -> 15 ;
16 [label="q_dep <= 40.0\nmse = 16.0\nsamples = 2\nvalue = 1776.0"] ;
14 -> 16 ;
17 [label="mse = 0.0\nsamples = 1\nvalue = 1772.0"] ;
16 -> 17 ;
18 [label="mse = 0.0\nsamples = 1\nvalue = 1780.0"] ;
16 -> 18 ;
19 [label="q_dep <= 10.0\nmse = 579.5556\nsamples = 3\nvalue = 1440.3333"] ;
13 -> 19 ;
20 [label="mse = 0.0\nsamples = 1\nvalue = 1407.0"] ;
19 -> 20 ;
21 [label="q_dep <= 40.0\nmse = 36.0\nsamples = 2\nvalue = 1457.0"] ;
19 -> 21 ;
22 [label="mse = 0.0\nsamples = 1\nvalue = 1451.0"] ;
21 -> 22 ;
23 [label="mse = 0.0\nsamples = 1\nvalue = 1463.0"] ;
21 -> 23 ;
24 [label="wr_size <= 2.5\nmse = 29962.0317\nsamples = 21\nvalue = 1563.3333"] ;
2 -> 24 ;
25 [label="q_dep <= 2.5\nmse = 5132.45\nsamples = 10\nvalue = 1733.5"] ;
24 -> 25 ;
26 [label="wr_stride <= 192.0\nmse = 198.2222\nsamples = 3\nvalue = 1635.3333"] ;
25 -> 26 ;
27 [label="wr_stride <= 96.0\nmse = 121.0\nsamples = 2\nvalue = 1643.0"] ;
26 -> 27 ;
28 [label="mse = 0.0\nsamples = 1\nvalue = 1632.0"] ;
27 -> 28 ;
29 [label="mse = 0.0\nsamples = 1\nvalue = 1654.0"] ;
27 -> 29 ;
30 [label="mse = 0.0\nsamples = 1\nvalue = 1620.0"] ;
26 -> 30 ;
31 [label="q_dep <= 34.0\nmse = 1347.102\nsamples = 7\nvalue = 1775.5714"] ;
25 -> 31 ;
32 [label="wr_stride <= 96.0\nmse = 503.1875\nsamples = 4\nvalue = 1748.25"] ;
31 -> 32 ;
33 [label="wr_stride <= 32.5\nmse = 12.25\nsamples = 2\nvalue = 1758.5"] ;
32 -> 33 ;
34 [label="mse = 0.0\nsamples = 1\nvalue = 1755.0"] ;
33 -> 34 ;
35 [label="mse = 0.0\nsamples = 1\nvalue = 1762.0"] ;
33 -> 35 ;
36 [label="wr_stride <= 192.0\nmse = 784.0\nsamples = 2\nvalue = 1738.0"] ;
32 -> 36 ;
37 [label="mse = 0.0\nsamples = 1\nvalue = 1710.0"] ;
36 -> 37 ;
38 [label="mse = 0.0\nsamples = 1\nvalue = 1766.0"] ;
36 -> 38 ;
39 [label="wr_stride <= 96.0\nmse = 150.0\nsamples = 3\nvalue = 1812.0"] ;
31 -> 39 ;
40 [label="mse = 0.0\nsamples = 1\nvalue = 1797.0"] ;
39 -> 40 ;
41 [label="wr_stride <= 192.0\nmse = 56.25\nsamples = 2\nvalue = 1819.5"] ;
39 -> 41 ;
42 [label="mse = 0.0\nsamples = 1\nvalue = 1827.0"] ;
41 -> 42 ;
43 [label="mse = 0.0\nsamples = 1\nvalue = 1812.0"] ;
41 -> 43 ;
44 [label="q_dep <= 2.5\nmse = 2278.9587\nsamples = 11\nvalue = 1408.6364"] ;
24 -> 44 ;
45 [label="wr_stride <= 96.0\nmse = 100.0\nsamples = 2\nvalue = 1336.0"] ;
44 -> 45 ;
46 [label="mse = 0.0\nsamples = 1\nvalue = 1326.0"] ;
45 -> 46 ;
47 [label="mse = 0.0\nsamples = 1\nvalue = 1346.0"] ;
45 -> 47 ;
48 [label="wr_stride <= 32.5\nmse = 1330.1728\nsamples = 9\nvalue = 1424.7778"] ;
44 -> 48 ;
49 [label="q_dep <= 34.0\nmse = 784.0\nsamples = 2\nvalue = 1371.0"] ;
48 -> 49 ;
50 [label="mse = 0.0\nsamples = 1\nvalue = 1343.0"] ;
49 -> 50 ;
51 [label="mse = 0.0\nsamples = 1\nvalue = 1399.0"] ;
49 -> 51 ;
52 [label="q_dep <= 10.0\nmse = 423.8367\nsamples = 7\nvalue = 1440.1429"] ;
48 -> 52 ;
53 [label="wr_stride <= 192.0\nmse = 157.5556\nsamples = 3\nvalue = 1420.3333"] ;
52 -> 53 ;
54 [label="mse = 2.25\nsamples = 2\nvalue = 1411.5"] ;
53 -> 54 ;
55 [label="mse = 0.0\nsamples = 1\nvalue = 1438.0"] ;
53 -> 55 ;
56 [label="q_dep <= 40.0\nmse = 108.5\nsamples = 4\nvalue = 1455.0"] ;
52 -> 56 ;
57 [label="mse = 6.25\nsamples = 2\nvalue = 1445.5"] ;
56 -> 57 ;
58 [label="mse = 30.25\nsamples = 2\nvalue = 1464.5"] ;
56 -> 58 ;
59 [label="wr_size <= 40.0\nmse = 102996.0625\nsamples = 49\nvalue = 362.2449"] ;
1 -> 59 ;
60 [label="wr_stride <= 0.5\nmse = 18696.1094\nsamples = 16\nvalue = 795.875"] ;
59 -> 60 ;
61 [label="wr_rnd <= 50.0\nmse = 22213.8889\nsamples = 6\nvalue = 922.6667"] ;
60 -> 61 ;
62 [label="q_dep <= 10.0\nmse = 11976.5\nsamples = 4\nvalue = 1007.0"] ;
61 -> 62 ;
63 [label="q_dep <= 2.5\nmse = 3192.25\nsamples = 2\nvalue = 905.5"] ;
62 -> 63 ;
64 [label="mse = 0.0\nsamples = 1\nvalue = 849.0"] ;
63 -> 64 ;
65 [label="mse = 0.0\nsamples = 1\nvalue = 962.0"] ;
63 -> 65 ;
66 [label="q_dep <= 40.0\nmse = 156.25\nsamples = 2\nvalue = 1108.5"] ;
62 -> 66 ;
67 [label="mse = 0.0\nsamples = 1\nvalue = 1096.0"] ;
66 -> 67 ;
68 [label="mse = 0.0\nsamples = 1\nvalue = 1121.0"] ;
66 -> 68 ;
69 [label="q_dep <= 40.0\nmse = 16.0\nsamples = 2\nvalue = 754.0"] ;
61 -> 69 ;
70 [label="mse = 0.0\nsamples = 1\nvalue = 750.0"] ;
69 -> 70 ;
71 [label="mse = 0.0\nsamples = 1\nvalue = 758.0"] ;
69 -> 71 ;
72 [label="q_dep <= 2.5\nmse = 1152.36\nsamples = 10\nvalue = 719.8"] ;
60 -> 72 ;
73 [label="wr_stride <= 32.5\nmse = 29.5556\nsamples = 3\nvalue = 669.6667"] ;
72 -> 73 ;
74 [label="mse = 0.0\nsamples = 1\nvalue = 662.0"] ;
73 -> 74 ;
75 [label="wr_stride <= 96.0\nmse = 0.25\nsamples = 2\nvalue = 673.5"] ;
73 -> 75 ;
76 [label="mse = 0.0\nsamples = 1\nvalue = 674.0"] ;
75 -> 76 ;
77 [label="mse = 0.0\nsamples = 1\nvalue = 673.0"] ;
75 -> 77 ;
78 [label="q_dep <= 10.0\nmse = 94.7755\nsamples = 7\nvalue = 741.2857"] ;
72 -> 78 ;
79 [label="wr_stride <= 96.0\nmse = 64.0\nsamples = 2\nvalue = 731.0"] ;
78 -> 79 ;
80 [label="mse = 0.0\nsamples = 1\nvalue = 723.0"] ;
79 -> 80 ;
81 [label="mse = 0.0\nsamples = 1\nvalue = 739.0"] ;
79 -> 81 ;
82 [label="wr_stride <= 32.5\nmse = 47.84\nsamples = 5\nvalue = 745.4"] ;
78 -> 82 ;
83 [label="q_dep <= 40.0\nmse = 1.0\nsamples = 2\nvalue = 737.0"] ;
82 -> 83 ;
84 [label="mse = 0.0\nsamples = 1\nvalue = 738.0"] ;
83 -> 84 ;
85 [label="mse = 0.0\nsamples = 1\nvalue = 736.0"] ;
83 -> 85 ;
86 [label="q_dep <= 40.0\nmse = 0.6667\nsamples = 3\nvalue = 751.0"] ;
82 -> 86 ;
87 [label="mse = 0.0\nsamples = 1\nvalue = 750.0"] ;
86 -> 87 ;
88 [label="mse = 0.25\nsamples = 2\nvalue = 751.5"] ;
86 -> 88 ;
89 [label="wr_size <= 160.0\nmse = 8497.3333\nsamples = 33\nvalue = 152.0"] ;
59 -> 89 ;
90 [label="q_dep <= 2.5\nmse = 37.9822\nsamples = 15\nvalue = 252.8667"] ;
89 -> 90 ;
91 [label="wr_stride <= 32.0\nmse = 35.5\nsamples = 4\nvalue = 245.0"] ;
90 -> 91 ;
92 [label="mse = 0.0\nsamples = 1\nvalue = 255.0"] ;
91 -> 92 ;
93 [label="wr_stride <= 96.0\nmse = 2.8889\nsamples = 3\nvalue = 241.6667"] ;
91 -> 93 ;
94 [label="mse = 0.0\nsamples = 1\nvalue = 240.0"] ;
93 -> 94 ;
95 [label="wr_stride <= 192.0\nmse = 2.25\nsamples = 2\nvalue = 242.5"] ;
93 -> 95 ;
96 [label="mse = 0.0\nsamples = 1\nvalue = 244.0"] ;
95 -> 96 ;
97 [label="mse = 0.0\nsamples = 1\nvalue = 241.0"] ;
95 -> 97 ;
98 [label="q_dep <= 10.0\nmse = 8.1983\nsamples = 11\nvalue = 255.7273"] ;
90 -> 98 ;
99 [label="wr_stride <= 192.0\nmse = 1.5556\nsamples = 3\nvalue = 251.6667"] ;
98 -> 99 ;
100 [label="wr_rnd <= 50.0\nmse = 0.25\nsamples = 2\nvalue = 252.5"] ;
99 -> 100 ;
101 [label="mse = 0.0\nsamples = 1\nvalue = 252.0"] ;
100 -> 101 ;
102 [label="mse = 0.0\nsamples = 1\nvalue = 253.0"] ;
100 -> 102 ;
103 [label="mse = 0.0\nsamples = 1\nvalue = 250.0"] ;
99 -> 103 ;
104 [label="q_dep <= 40.0\nmse = 2.1875\nsamples = 8\nvalue = 257.25"] ;
98 -> 104 ;
105 [label="wr_stride <= 0.5\nmse = 0.5\nsamples = 4\nvalue = 256.0"] ;
104 -> 105 ;
106 [label="mse = 0.0\nsamples = 1\nvalue = 255.0"] ;
105 -> 106 ;
107 [label="mse = 0.2222\nsamples = 3\nvalue = 256.3333"] ;
105 -> 107 ;
108 [label="wr_stride <= 0.5\nmse = 0.75\nsamples = 4\nvalue = 258.5"] ;
104 -> 108 ;
109 [label="mse = 0.0\nsamples = 1\nvalue = 260.0"] ;
108 -> 109 ;
110 [label="mse = 0.0\nsamples = 3\nvalue = 258.0"] ;
108 -> 110 ;
111 [label="q_dep <= 2.5\nmse = 3.0525\nsamples = 18\nvalue = 67.9444"] ;
89 -> 111 ;
112 [label="wr_rnd <= 50.0\nmse = 0.24\nsamples = 5\nvalue = 65.4"] ;
111 -> 112 ;
113 [label="wr_stride <= 0.5\nmse = 0.25\nsamples = 4\nvalue = 65.5"] ;
112 -> 113 ;
114 [label="mse = 0.0\nsamples = 1\nvalue = 66.0"] ;
113 -> 114 ;
115 [label="wr_stride <= 64.5\nmse = 0.2222\nsamples = 3\nvalue = 65.3333"] ;
113 -> 115 ;
116 [label="mse = 0.0\nsamples = 1\nvalue = 65.0"] ;
115 -> 116 ;
117 [label="mse = 0.25\nsamples = 2\nvalue = 65.5"] ;
115 -> 117 ;
118 [label="mse = 0.0\nsamples = 1\nvalue = 65.0"] ;
112 -> 118 ;
119 [label="q_dep <= 10.0\nmse = 0.6864\nsamples = 13\nvalue = 68.9231"] ;
111 -> 119 ;
120 [label="wr_stride <= 0.5\nmse = 0.5\nsamples = 4\nvalue = 68.0"] ;
119 -> 120 ;
121 [label="mse = 0.0\nsamples = 1\nvalue = 69.0"] ;
120 -> 121 ;
122 [label="wr_stride <= 64.5\nmse = 0.2222\nsamples = 3\nvalue = 67.6667"] ;
120 -> 122 ;
123 [label="mse = 0.0\nsamples = 1\nvalue = 67.0"] ;
122 -> 123 ;
124 [label="mse = 0.0\nsamples = 2\nvalue = 68.0"] ;
122 -> 124 ;
125 [label="wr_stride <= 0.5\nmse = 0.2222\nsamples = 9\nvalue = 69.3333"] ;
119 -> 125 ;
126 [label="mse = 0.0\nsamples = 3\nvalue = 70.0"] ;
125 -> 126 ;
127 [label="mse = 0.0\nsamples = 6\nvalue = 69.0"] ;
125 -> 127 ;
128 [label="wr_size <= 10.0\nmse = 45009.6219\nsamples = 337\nvalue = 89.1009"] ;
0 -> 128 [labeldistance=2.5, labelangle=-45, headlabel="False"] ;
129 [label="wr_stride <= 32.5\nmse = 98846.5883\nsamples = 132\nvalue = 173.6591"] ;
128 -> 129 ;
130 [label="wr_rnd <= 50.0\nmse = 158161.2238\nsamples = 68\nvalue = 301.1618"] ;
129 -> 130 ;
131 [label="wr_stride <= 0.5\nmse = 170315.3551\nsamples = 45\nvalue = 453.5778"] ;
130 -> 131 ;
132 [label="q_dep <= 40.0\nmse = 255744.2169\nsamples = 22\nvalue = 634.6818"] ;
131 -> 132 ;
133 [label="q_dep <= 10.0\nmse = 5493.0625\nsamples = 16\nvalue = 470.25"] ;
132 -> 133 ;
134 [label="q_dep <= 2.5\nmse = 2445.5207\nsamples = 11\nvalue = 436.5455"] ;
133 -> 134 ;
135 [label="mse = 662.25\nsamples = 4\nvalue = 469.5"] ;
134 -> 135 ;
136 [label="mse = 2489.3469\nsamples = 7\nvalue = 417.7143"] ;
134 -> 136 ;
137 [label="wr_ratio <= 37.5\nmse = 4200.24\nsamples = 5\nvalue = 544.4"] ;
133 -> 137 ;
138 [label="mse = 110.25\nsamples = 2\nvalue = 613.5"] ;
137 -> 138 ;
139 [label="mse = 1621.5556\nsamples = 3\nvalue = 498.3333"] ;
137 -> 139 ;
140 [label="wr_ratio <= 87.5\nmse = 658710.8056\nsamples = 6\nvalue = 1073.1667"] ;
132 -> 140 ;
141 [label="wr_ratio <= 37.5\nmse = 12634.75\nsamples = 4\nvalue = 735.5"] ;
140 -> 141 ;
142 [label="mse = 1.0\nsamples = 2\nvalue = 824.0"] ;
141 -> 142 ;
143 [label="mse = 9604.0\nsamples = 2\nvalue = 647.0"] ;
141 -> 143 ;
144 [label="wr_size <= 2.5\nmse = 1266750.25\nsamples = 2\nvalue = 1748.5"] ;
140 -> 144 ;
145 [label="mse = 0.0\nsamples = 1\nvalue = 2874.0"] ;
144 -> 145 ;
146 [label="mse = 0.0\nsamples = 1\nvalue = 623.0"] ;
144 -> 146 ;
147 [label="wr_ratio <= 37.5\nmse = 27219.5312\nsamples = 23\nvalue = 280.3478"] ;
131 -> 147 ;
148 [label="q_dep <= 10.0\nmse = 1073.9592\nsamples = 7\nvalue = 516.5714"] ;
147 -> 148 ;
149 [label="q_dep <= 2.5\nmse = 192.8889\nsamples = 3\nvalue = 490.6667"] ;
148 -> 149 ;
150 [label="mse = 0.0\nsamples = 1\nvalue = 474.0"] ;
149 -> 150 ;
151 [label="mse = 81.0\nsamples = 2\nvalue = 499.0"] ;
149 -> 151 ;
152 [label="wr_size <= 2.5\nmse = 854.0\nsamples = 4\nvalue = 536.0"] ;
148 -> 152 ;
153 [label="mse = 100.0\nsamples = 2\nvalue = 562.0"] ;
152 -> 153 ;
154 [label="mse = 256.0\nsamples = 2\nvalue = 510.0"] ;
152 -> 154 ;
155 [label="wr_ratio <= 62.5\nmse = 3564.25\nsamples = 16\nvalue = 177.0"] ;
147 -> 155 ;
156 [label="wr_size <= 2.5\nmse = 3082.1389\nsamples = 6\nvalue = 229.8333"] ;
155 -> 156 ;
157 [label="mse = 272.25\nsamples = 2\nvalue = 306.5"] ;
156 -> 157 ;
158 [label="mse = 78.75\nsamples = 4\nvalue = 191.5"] ;
156 -> 158 ;
159 [label="wr_ratio <= 87.5\nmse = 1173.81\nsamples = 10\nvalue = 145.3"] ;
155 -> 159 ;
160 [label="mse = 889.6735\nsamples = 7\nvalue = 160.5714"] ;
159 -> 160 ;
161 [label="mse = 22.8889\nsamples = 3\nvalue = 109.6667"] ;
159 -> 161 ;
162 [label="wr_ratio <= 37.5\nmse = 3.7807\nsamples = 23\nvalue = 2.9565"] ;
130 -> 162 ;
163 [label="q_dep <= 40.0\nmse = 8.4\nsamples = 5\nvalue = 5.0"] ;
162 -> 163 ;
164 [label="q_dep <= 2.5\nmse = 6.8889\nsamples = 3\nvalue = 3.3333"] ;
163 -> 164 ;
165 [label="mse = 0.0\nsamples = 1\nvalue = 7.0"] ;
164 -> 165 ;
166 [label="q_dep <= 10.0\nmse = 0.25\nsamples = 2\nvalue = 1.5"] ;
164 -> 166 ;
167 [label="mse = 0.0\nsamples = 1\nvalue = 2.0"] ;
166 -> 167 ;
168 [label="mse = 0.0\nsamples = 1\nvalue = 1.0"] ;
166 -> 168 ;
169 [label="wr_size <= 2.5\nmse = 0.25\nsamples = 2\nvalue = 7.5"] ;
163 -> 169 ;
170 [label="mse = 0.0\nsamples = 1\nvalue = 7.0"] ;
169 -> 170 ;
171 [label="mse = 0.0\nsamples = 1\nvalue = 8.0"] ;
169 -> 171 ;
172 [label="wr_ratio <= 87.5\nmse = 1.0154\nsamples = 18\nvalue = 2.3889"] ;
162 -> 172 ;
173 [label="wr_size <= 2.5\nmse = 0.8056\nsamples = 12\nvalue = 2.8333"] ;
172 -> 173 ;
174 [label="wr_ratio <= 62.5\nmse = 0.5556\nsamples = 6\nvalue = 2.3333"] ;
173 -> 174 ;
175 [label="mse = 0.2222\nsamples = 3\nvalue = 2.6667"] ;
174 -> 175 ;
176 [label="mse = 0.6667\nsamples = 3\nvalue = 2.0"] ;
174 -> 176 ;
177 [label="wr_ratio <= 62.5\nmse = 0.5556\nsamples = 6\nvalue = 3.3333"] ;
173 -> 177 ;
178 [label="mse = 0.5\nsamples = 4\nvalue = 3.0"] ;
177 -> 178 ;
179 [label="mse = 0.0\nsamples = 2\nvalue = 4.0"] ;
177 -> 179 ;
180 [label="q_dep <= 40.0\nmse = 0.25\nsamples = 6\nvalue = 1.5"] ;
172 -> 180 ;
181 [label="q_dep <= 2.5\nmse = 0.1875\nsamples = 4\nvalue = 1.25"] ;
180 -> 181 ;
182 [label="mse = 0.0\nsamples = 1\nvalue = 2.0"] ;
181 -> 182 ;
183 [label="mse = 0.0\nsamples = 3\nvalue = 1.0"] ;
181 -> 183 ;
184 [label="mse = 0.0\nsamples = 2\nvalue = 2.0"] ;
180 -> 184 ;
185 [label="wr_stride <= 192.0\nmse = 199.2461\nsamples = 64\nvalue = 38.1875"] ;
129 -> 185 ;
186 [label="wr_ratio <= 37.5\nmse = 62.5238\nsamples = 42\nvalue = 47.0"] ;
185 -> 186 ;
187 [label="wr_stride <= 96.0\nmse = 228.7654\nsamples = 9\nvalue = 41.1111"] ;
186 -> 187 ;
188 [label="q_dep <= 2.5\nmse = 10.64\nsamples = 5\nvalue = 54.4"] ;
187 -> 188 ;
189 [label="mse = 0.0\nsamples = 1\nvalue = 51.0"] ;
188 -> 189 ;
190 [label="q_dep <= 10.0\nmse = 9.6875\nsamples = 4\nvalue = 55.25"] ;
188 -> 190 ;
191 [label="mse = 0.0\nsamples = 1\nvalue = 60.0"] ;
190 -> 191 ;
192 [label="mse = 2.8889\nsamples = 3\nvalue = 53.6667"] ;
190 -> 192 ;
193 [label="q_dep <= 40.0\nmse = 4.75\nsamples = 4\nvalue = 24.5"] ;
187 -> 193 ;
194 [label="q_dep <= 10.0\nmse = 0.8889\nsamples = 3\nvalue = 25.6667"] ;
193 -> 194 ;
195 [label="mse = 0.0\nsamples = 2\nvalue = 25.0"] ;
194 -> 195 ;
196 [label="mse = 0.0\nsamples = 1\nvalue = 27.0"] ;
194 -> 196 ;
197 [label="mse = 0.0\nsamples = 1\nvalue = 21.0"] ;
193 -> 197 ;
198 [label="wr_size <= 2.5\nmse = 5.1478\nsamples = 33\nvalue = 48.6061"] ;
186 -> 198 ;
199 [label="q_dep <= 40.0\nmse = 5.0625\nsamples = 16\nvalue = 49.75"] ;
198 -> 199 ;
200 [label="wr_ratio <= 62.5\nmse = 2.6735\nsamples = 14\nvalue = 49.4286"] ;
199 -> 200 ;
201 [label="mse = 3.6875\nsamples = 4\nvalue = 47.75"] ;
200 -> 201 ;
202 [label="mse = 0.69\nsamples = 10\nvalue = 50.1"] ;
200 -> 202 ;
203 [label="wr_stride <= 96.0\nmse = 16.0\nsamples = 2\nvalue = 52.0"] ;
199 -> 203 ;
204 [label="mse = 0.0\nsamples = 1\nvalue = 48.0"] ;
203 -> 204 ;
205 [label="mse = 0.0\nsamples = 1\nvalue = 56.0"] ;
203 -> 205 ;
206 [label="q_dep <= 10.0\nmse = 2.8374\nsamples = 17\nvalue = 47.5294"] ;
198 -> 206 ;
207 [label="wr_ratio <= 87.5\nmse = 4.321\nsamples = 9\nvalue = 47.1111"] ;
206 -> 207 ;
208 [label="mse = 1.5556\nsamples = 6\nvalue = 47.6667"] ;
207 -> 208 ;
209 [label="mse = 8.0\nsamples = 3\nvalue = 46.0"] ;
207 -> 209 ;
210 [label="wr_ratio <= 62.5\nmse = 0.75\nsamples = 8\nvalue = 48.0"] ;
206 -> 210 ;
211 [label="mse = 0.0\nsamples = 2\nvalue = 47.0"] ;
210 -> 211 ;
212 [label="mse = 0.5556\nsamples = 6\nvalue = 48.3333"] ;
210 -> 212 ;
213 [label="wr_ratio <= 62.5\nmse = 28.9587\nsamples = 22\nvalue = 21.3636"] ;
185 -> 213 ;
214 [label="wr_ratio <= 37.5\nmse = 13.9506\nsamples = 9\nvalue = 15.7778"] ;
213 -> 214 ;
215 [label="q_dep <= 8.5\nmse = 4.6875\nsamples = 4\nvalue = 12.25"] ;
214 -> 215 ;
216 [label="mse = 0.0\nsamples = 1\nvalue = 16.0"] ;
215 -> 216 ;
217 [label="mse = 0.0\nsamples = 3\nvalue = 11.0"] ;
215 -> 217 ;
218 [label="q_dep <= 10.0\nmse = 3.44\nsamples = 5\nvalue = 18.6"] ;
214 -> 218 ;
219 [label="q_dep <= 2.5\nmse = 0.25\nsamples = 2\nvalue = 16.5"] ;
218 -> 219 ;
220 [label="mse = 0.0\nsamples = 1\nvalue = 16.0"] ;
219 -> 220 ;
221 [label="mse = 0.0\nsamples = 1\nvalue = 17.0"] ;
219 -> 221 ;
222 [label="q_dep <= 40.0\nmse = 0.6667\nsamples = 3\nvalue = 20.0"] ;
218 -> 222 ;
223 [label="mse = 0.0\nsamples = 1\nvalue = 19.0"] ;
222 -> 223 ;
224 [label="mse = 0.25\nsamples = 2\nvalue = 20.5"] ;
222 -> 224 ;
225 [label="wr_ratio <= 87.5\nmse = 2.7929\nsamples = 13\nvalue = 25.2308"] ;
213 -> 225 ;
226 [label="q_dep <= 40.0\nmse = 3.7143\nsamples = 7\nvalue = 26.0"] ;
225 -> 226 ;
227 [label="q_dep <= 2.5\nmse = 1.36\nsamples = 5\nvalue = 25.2"] ;
226 -> 227 ;
228 [label="mse = 0.0\nsamples = 1\nvalue = 24.0"] ;
227 -> 228 ;
229 [label="mse = 1.25\nsamples = 4\nvalue = 25.5"] ;
227 -> 229 ;
230 [label="wr_size <= 2.5\nmse = 4.0\nsamples = 2\nvalue = 28.0"] ;
226 -> 230 ;
231 [label="mse = 0.0\nsamples = 1\nvalue = 30.0"] ;
230 -> 231 ;
232 [label="mse = 0.0\nsamples = 1\nvalue = 26.0"] ;
230 -> 232 ;
233 [label="wr_size <= 2.5\nmse = 0.2222\nsamples = 6\nvalue = 24.3333"] ;
225 -> 233 ;
234 [label="mse = 0.0\nsamples = 2\nvalue = 25.0"] ;
233 -> 234 ;
235 [label="mse = 0.0\nsamples = 4\nvalue = 24.0"] ;
233 -> 235 ;
236 [label="wr_size <= 40.0\nmse = 2775.4069\nsamples = 205\nvalue = 34.6537"] ;
128 -> 236 ;
237 [label="wr_stride <= 32.5\nmse = 6216.8\nsamples = 65\nvalue = 68.0"] ;
236 -> 237 ;
238 [label="wr_rnd <= 50.0\nmse = 9149.1967\nsamples = 31\nvalue = 112.3548"] ;
237 -> 238 ;
239 [label="wr_stride <= 0.5\nmse = 4975.2018\nsamples = 21\nvalue = 164.8095"] ;
238 -> 239 ;
240 [label="q_dep <= 2.5\nmse = 2186.8395\nsamples = 9\nvalue = 234.2222"] ;
239 -> 240 ;
241 [label="wr_ratio <= 62.5\nmse = 1494.6875\nsamples = 4\nvalue = 258.25"] ;
240 -> 241 ;
242 [label="mse = 361.0\nsamples = 2\nvalue = 222.0"] ;
241 -> 242 ;
243 [label="mse = 0.25\nsamples = 2\nvalue = 294.5"] ;
241 -> 243 ;
244 [label="wr_ratio <= 75.0\nmse = 1909.2\nsamples = 5\nvalue = 215.0"] ;
240 -> 244 ;
245 [label="mse = 274.8889\nsamples = 3\nvalue = 248.6667"] ;
244 -> 245 ;
246 [label="mse = 110.25\nsamples = 2\nvalue = 164.5"] ;
244 -> 246 ;
247 [label="wr_ratio <= 62.5\nmse = 742.6875\nsamples = 12\nvalue = 112.75"] ;
239 -> 247 ;
248 [label="wr_ratio <= 37.5\nmse = 415.4722\nsamples = 6\nvalue = 132.8333"] ;
247 -> 248 ;
249 [label="mse = 308.2222\nsamples = 3\nvalue = 123.6667"] ;
248 -> 249 ;
250 [label="mse = 354.6667\nsamples = 3\nvalue = 142.0"] ;
248 -> 250 ;
251 [label="wr_ratio <= 87.5\nmse = 263.2222\nsamples = 6\nvalue = 92.6667"] ;
247 -> 251 ;
252 [label="mse = 108.2222\nsamples = 3\nvalue = 105.6667"] ;
251 -> 252 ;
253 [label="mse = 80.2222\nsamples = 3\nvalue = 79.6667"] ;
251 -> 253 ;
254 [label="wr_ratio <= 87.5\nmse = 2.36\nsamples = 10\nvalue = 2.2"] ;
238 -> 254 ;
255 [label="q_dep <= 10.0\nmse = 2.8056\nsamples = 6\nvalue = 2.8333"] ;
254 -> 255 ;
256 [label="mse = 0.0\nsamples = 2\nvalue = 2.0"] ;
255 -> 256 ;
257 [label="wr_ratio <= 62.5\nmse = 3.6875\nsamples = 4\nvalue = 3.25"] ;
255 -> 257 ;
258 [label="mse = 2.25\nsamples = 2\nvalue = 2.5"] ;
257 -> 258 ;
259 [label="mse = 4.0\nsamples = 2\nvalue = 4.0"] ;
257 -> 259 ;
260 [label="q_dep <= 40.0\nmse = 0.1875\nsamples = 4\nvalue = 1.25"] ;
254 -> 260 ;
261 [label="mse = 0.0\nsamples = 3\nvalue = 1.0"] ;
260 -> 261 ;
262 [label="mse = 0.0\nsamples = 1\nvalue = 2.0"] ;
260 -> 262 ;
263 [label="wr_stride <= 96.0\nmse = 113.8936\nsamples = 34\nvalue = 27.5588"] ;
237 -> 263 ;
264 [label="wr_ratio <= 62.5\nmse = 32.69\nsamples = 10\nvalue = 39.9"] ;
263 -> 264 ;
265 [label="q_dep <= 40.0\nmse = 1.1875\nsamples = 4\nvalue = 42.25"] ;
264 -> 265 ;
266 [label="q_dep <= 8.5\nmse = 0.2222\nsamples = 3\nvalue = 41.6667"] ;
265 -> 266 ;
267 [label="mse = 0.0\nsamples = 1\nvalue = 41.0"] ;
266 -> 267 ;
268 [label="mse = 0.0\nsamples = 2\nvalue = 42.0"] ;
266 -> 268 ;
269 [label="mse = 0.0\nsamples = 1\nvalue = 44.0"] ;
265 -> 269 ;
270 [label="q_dep <= 40.0\nmse = 47.5556\nsamples = 6\nvalue = 38.3333"] ;
264 -> 270 ;
271 [label="q_dep <= 10.0\nmse = 50.24\nsamples = 5\nvalue = 39.4"] ;
270 -> 271 ;
272 [label="mse = 22.2222\nsamples = 3\nvalue = 37.6667"] ;
271 -> 272 ;
273 [label="mse = 81.0\nsamples = 2\nvalue = 42.0"] ;
271 -> 273 ;
274 [label="mse = 0.0\nsamples = 1\nvalue = 33.0"] ;
270 -> 274 ;
275 [label="wr_stride <= 192.0\nmse = 57.8264\nsamples = 24\nvalue = 22.4167"] ;
263 -> 275 ;
276 [label="wr_ratio <= 62.5\nmse = 73.2727\nsamples = 11\nvalue = 26.0"] ;
275 -> 276 ;
277 [label="wr_ratio <= 37.5\nmse = 134.56\nsamples = 5\nvalue = 29.8"] ;
276 -> 277 ;
278 [label="mse = 11.5556\nsamples = 3\nvalue = 20.6667"] ;
277 -> 278 ;
279 [label="mse = 6.25\nsamples = 2\nvalue = 43.5"] ;
277 -> 279 ;
280 [label="q_dep <= 10.0\nmse = 0.1389\nsamples = 6\nvalue = 22.8333"] ;
276 -> 280 ;
281 [label="mse = 0.0\nsamples = 4\nvalue = 23.0"] ;
280 -> 281 ;
282 [label="mse = 0.25\nsamples = 2\nvalue = 22.5"] ;
280 -> 282 ;
283 [label="wr_ratio <= 62.5\nmse = 24.6982\nsamples = 13\nvalue = 19.3846"] ;
275 -> 283 ;
284 [label="q_dep <= 34.0\nmse = 1.36\nsamples = 5\nvalue = 13.2"] ;
283 -> 284 ;
285 [label="mse = 0.2222\nsamples = 3\nvalue = 12.3333"] ;
284 -> 285 ;
286 [label="mse = 0.25\nsamples = 2\nvalue = 14.5"] ;
284 -> 286 ;
287 [label="q_dep <= 40.0\nmse = 0.4375\nsamples = 8\nvalue = 23.25"] ;
283 -> 287 ;
288 [label="mse = 0.0\nsamples = 6\nvalue = 23.0"] ;
287 -> 288 ;
289 [label="mse = 1.0\nsamples = 2\nvalue = 24.0"] ;
287 -> 289 ;
290 [label="wr_size <= 160.0\nmse = 421.642\nsamples = 140\nvalue = 19.1714"] ;
236 -> 290 ;
291 [label="wr_rnd <= 50.0\nmse = 653.3512\nsamples = 70\nvalue = 28.3857"] ;
290 -> 291 ;
292 [label="wr_stride <= 32.5\nmse = 608.9983\nsamples = 55\nvalue = 35.2727"] ;
291 -> 292 ;
293 [label="wr_ratio <= 62.5\nmse = 340.5\nsamples = 24\nvalue = 58.5"] ;
292 -> 293 ;
294 [label="q_dep <= 10.0\nmse = 207.5976\nsamples = 13\nvalue = 50.3077"] ;
293 -> 294 ;
295 [label="mse = 13.7143\nsamples = 7\nvalue = 44.0"] ;
294 -> 295 ;
296 [label="mse = 333.2222\nsamples = 6\nvalue = 57.6667"] ;
294 -> 296 ;
297 [label="wr_stride <= 0.5\nmse = 324.5124\nsamples = 11\nvalue = 68.1818"] ;
293 -> 297 ;
298 [label="mse = 236.9796\nsamples = 7\nvalue = 77.1429"] ;
297 -> 298 ;
299 [label="mse = 91.25\nsamples = 4\nvalue = 52.5"] ;
297 -> 299 ;
300 [label="wr_stride <= 96.0\nmse = 75.8189\nsamples = 31\nvalue = 17.2903"] ;
292 -> 300 ;
301 [label="wr_ratio <= 37.5\nmse = 120.1094\nsamples = 8\nvalue = 27.875"] ;
300 -> 301 ;
302 [label="mse = 9.0\nsamples = 2\nvalue = 19.0"] ;
301 -> 302 ;
303 [label="mse = 122.1389\nsamples = 6\nvalue = 30.8333"] ;
301 -> 303 ;
304 [label="wr_stride <= 192.0\nmse = 7.8904\nsamples = 23\nvalue = 13.6087"] ;
300 -> 304 ;
305 [label="mse = 3.69\nsamples = 10\nvalue = 16.1"] ;
304 -> 305 ;
306 [label="mse = 2.6746\nsamples = 13\nvalue = 11.6923"] ;
304 -> 306 ;
307 [label="wr_ratio <= 37.5\nmse = 4.3822\nsamples = 15\nvalue = 3.1333"] ;
291 -> 307 ;
308 [label="q_dep <= 40.0\nmse = 6.6875\nsamples = 4\nvalue = 5.25"] ;
307 -> 308 ;
309 [label="q_dep <= 10.0\nmse = 0.8889\nsamples = 3\nvalue = 6.6667"] ;
308 -> 309 ;
310 [label="mse = 0.0\nsamples = 2\nvalue = 6.0"] ;
309 -> 310 ;
311 [label="mse = 0.0\nsamples = 1\nvalue = 8.0"] ;
309 -> 311 ;
312 [label="mse = 0.0\nsamples = 1\nvalue = 1.0"] ;
308 -> 312 ;
313 [label="q_dep <= 40.0\nmse = 1.3223\nsamples = 11\nvalue = 2.3636"] ;
307 -> 313 ;
314 [label="wr_ratio <= 87.5\nmse = 0.8594\nsamples = 8\nvalue = 1.875"] ;
313 -> 314 ;
315 [label="mse = 0.64\nsamples = 5\nvalue = 2.4"] ;
314 -> 315 ;
316 [label="mse = 0.0\nsamples = 3\nvalue = 1.0"] ;
314 -> 316 ;
317 [label="wr_ratio <= 87.5\nmse = 0.2222\nsamples = 3\nvalue = 3.6667"] ;
313 -> 317 ;
318 [label="mse = 0.0\nsamples = 2\nvalue = 4.0"] ;
317 -> 318 ;
319 [label="mse = 0.0\nsamples = 1\nvalue = 3.0"] ;
317 -> 319 ;
320 [label="wr_rnd <= 50.0\nmse = 20.1267\nsamples = 70\nvalue = 9.9571"] ;
290 -> 320 ;
321 [label="wr_stride <= 32.5\nmse = 11.8793\nsamples = 59\nvalue = 11.322"] ;
320 -> 321 ;
322 [label="wr_ratio <= 62.5\nmse = 12.2438\nsamples = 19\nvalue = 14.5789"] ;
321 -> 322 ;
323 [label="wr_ratio <= 37.5\nmse = 5.7025\nsamples = 11\nvalue = 12.5455"] ;
322 -> 323 ;
324 [label="mse = 1.9592\nsamples = 7\nvalue = 11.5714"] ;
323 -> 324 ;
325 [label="mse = 7.6875\nsamples = 4\nvalue = 14.25"] ;
323 -> 325 ;
326 [label="q_dep <= 10.0\nmse = 7.7344\nsamples = 8\nvalue = 17.375"] ;
322 -> 326 ;
327 [label="mse = 2.25\nsamples = 4\nvalue = 15.5"] ;
326 -> 327 ;
328 [label="mse = 6.1875\nsamples = 4\nvalue = 19.25"] ;
326 -> 328 ;
329 [label="wr_ratio <= 37.5\nmse = 4.2744\nsamples = 40\nvalue = 9.775"] ;
321 -> 329 ;
330 [label="q_dep <= 40.0\nmse = 2.0764\nsamples = 12\nvalue = 8.0833"] ;
329 -> 330 ;
331 [label="mse = 0.6173\nsamples = 9\nvalue = 8.7778"] ;
330 -> 331 ;
332 [label="mse = 0.6667\nsamples = 3\nvalue = 6.0"] ;
330 -> 332 ;
333 [label="wr_stride <= 96.0\nmse = 3.4643\nsamples = 28\nvalue = 10.5"] ;
329 -> 333 ;
334 [label="mse = 4.76\nsamples = 10\nvalue = 11.8"] ;
333 -> 334 ;
335 [label="mse = 1.284\nsamples = 18\nvalue = 9.7778"] ;
333 -> 335 ;
336 [label="wr_ratio <= 37.5\nmse = 0.7769\nsamples = 11\nvalue = 2.6364"] ;
320 -> 336 ;
337 [label="q_dep <= 10.0\nmse = 0.25\nsamples = 4\nvalue = 3.5"] ;
336 -> 337 ;
338 [label="mse = 0.0\nsamples = 2\nvalue = 4.0"] ;
337 -> 338 ;
339 [label="mse = 0.0\nsamples = 2\nvalue = 3.0"] ;
337 -> 339 ;
340 [label="wr_ratio <= 87.5\nmse = 0.4082\nsamples = 7\nvalue = 2.1429"] ;
336 -> 340 ;
341 [label="q_dep <= 8.5\nmse = 0.25\nsamples = 4\nvalue = 2.5"] ;
340 -> 341 ;
342 [label="mse = 0.0\nsamples = 1\nvalue = 2.0"] ;
341 -> 342 ;
343 [label="mse = 0.2222\nsamples = 3\nvalue = 2.6667"] ;
341 -> 343 ;
344 [label="q_dep <= 8.5\nmse = 0.2222\nsamples = 3\nvalue = 1.6667"] ;
340 -> 344 ;
345 [label="mse = 0.0\nsamples = 1\nvalue = 1.0"] ;
344 -> 345 ;
346 [label="mse = 0.0\nsamples = 2\nvalue = 2.0"] ;
344 -> 346 ;
}